<?xml version="1.0"?>
<opencv_storage>
<opencv_ml_svm>
  <format>3</format>
  <svmType>EPS_SVR</svmType>
  <kernel>
    <type>LINEAR</type></kernel>
  <C>1.0000000000000000e-02</C>
  <p>1.0000000000000001e-01</p>
  <term_criteria><epsilon>1.0000000000000000e-03</epsilon>
    <iterations>1000</iterations></term_criteria>
  <var_count>3</var_count>
  <sv_total>1</sv_total>
  <support_vectors>
    <_>
      2.26565930e-06 1.70098901e-01 5.43109747e-03</_></support_vectors>
  <uncompressed_sv_total>1422</uncompressed_sv_total>
  <uncompressed_support_vectors>
    <_>
      1.26597001e-06 4.71560545e-02 1.22674974e-03</_>
    <_>
      1.42113606e-06 5.51528335e-02 1.28274236e-03</_>
    <_>
      1.47942956e-06 6.09658957e-02 1.33364485e-03</_>
    <_>
      1.50450921e-06 6.19992167e-02 1.33873511e-03</_>
    <_>
      1.61275341e-06 6.58067241e-02 1.35400589e-03</_>
    <_>
      1.56622843e-06 6.77613765e-02 1.38454733e-03</_>
    <_>
      1.63795005e-06 6.68349490e-02 1.35909615e-03</_>
    <_>
      1.82150950e-06 7.58039653e-02 1.40999863e-03</_>
    <_>
      1.86474608e-06 7.60890245e-02 1.40490837e-03</_>
    <_>
      2.02112869e-06 8.41112509e-02 1.45072059e-03</_>
    <_>
      2.08575966e-06 8.76540616e-02 1.47108163e-03</_>
    <_>
      2.11890710e-06 9.25559700e-02 1.50671334e-03</_>
    <_>
      2.11293127e-06 9.49636623e-02 1.52707426e-03</_>
    <_>
      1.94695872e-06 9.16804522e-02 1.52707426e-03</_>
    <_>
      1.96507494e-06 9.08354670e-02 1.51689386e-03</_>
    <_>
      1.97425243e-06 9.04129818e-02 1.51180360e-03</_>
    <_>
      2.01242437e-06 9.30242762e-02 1.52707426e-03</_>
    <_>
      1.97954137e-06 9.23574567e-02 1.52707426e-03</_>
    <_>
      1.97566760e-06 9.47549567e-02 1.54743530e-03</_>
    <_>
      1.99387546e-06 9.38896164e-02 1.53725478e-03</_>
    <_>
      1.99890974e-06 9.58697274e-02 1.55252556e-03</_>
    <_>
      1.93803044e-06 9.21029449e-02 1.53216452e-03</_>
    <_>
      1.92917832e-06 9.25254300e-02 1.53725478e-03</_>
    <_>
      1.89727280e-06 9.18280706e-02 1.53725478e-03</_>
    <_>
      1.76864728e-06 9.85064730e-02 1.61869870e-03</_>
    <_>
      1.88612000e-06 9.46378857e-02 1.56270608e-03</_>
    <_>
      1.87175021e-06 9.30802673e-02 1.55252556e-03</_>
    <_>
      1.85099725e-06 9.87711623e-02 1.60342804e-03</_>
    <_>
      1.91710433e-06 1.02298707e-01 1.61869870e-03</_>
    <_>
      1.91427921e-06 1.04818381e-01 1.63905974e-03</_>
    <_>
      1.77052050e-06 1.13329276e-01 1.73577445e-03</_>
    <_>
      1.72950320e-06 1.16016924e-01 1.76631589e-03</_>
    <_>
      1.76200956e-06 1.19111799e-01 1.78158667e-03</_>
    <_>
      1.69075111e-06 1.35410771e-01 1.91902334e-03</_>
    <_>
      1.70272347e-06 1.37334883e-01 1.92920386e-03</_>
    <_>
      1.67301687e-06 1.36846215e-01 1.93429412e-03</_>
    <_>
      1.64372761e-06 1.36337191e-01 1.93938438e-03</_>
    <_>
      1.63742072e-06 1.33934602e-01 1.92411360e-03</_>
    <_>
      1.65477843e-06 1.32529691e-01 1.90884282e-03</_>
    <_>
      1.67276744e-06 1.33970231e-01 1.91393308e-03</_>
    <_>
      1.69674740e-06 1.34932280e-01 1.91393308e-03</_>
    <_>
      1.70874023e-06 1.36851311e-01 1.92411360e-03</_>
    <_>
      1.69674740e-06 1.34932280e-01 1.91393308e-03</_>
    <_>
      1.71479746e-06 1.36367738e-01 1.91902334e-03</_>
    <_>
      1.72090074e-06 1.35884166e-01 1.91393308e-03</_>
    <_>
      1.75090270e-06 1.39238641e-01 1.92920386e-03</_>
    <_>
      1.82818792e-06 1.47454292e-01 1.96483568e-03</_>
    <_>
      1.94679569e-06 1.58128545e-01 2.00555753e-03</_>
    <_>
      1.96055453e-06 1.57018870e-01 1.99537701e-03</_>
    <_>
      1.95507755e-06 1.63290054e-01 2.03609909e-03</_>
    <_>
      1.91311346e-06 1.69892102e-01 2.08700146e-03</_>
    <_>
      1.93194251e-06 1.77369684e-01 2.12772354e-03</_>
    <_>
      1.94627160e-06 1.82241052e-01 2.15317472e-03</_>
    <_>
      1.92963648e-06 1.80683434e-01 2.14808458e-03</_>
    <_>
      1.89636671e-06 1.77568197e-01 2.13790406e-03</_>
    <_>
      1.90677110e-06 1.79711193e-01 2.14808458e-03</_>
    <_>
      1.87973171e-06 1.76010579e-01 2.13281368e-03</_>
    <_>
      1.96554311e-06 1.80454373e-01 2.13790406e-03</_>
    <_>
      1.94147128e-06 1.88990712e-01 2.19389680e-03</_>
    <_>
      1.94531958e-06 1.91800535e-01 2.20916746e-03</_>
    <_>
      1.89066554e-06 1.87601075e-01 2.19898694e-03</_>
    <_>
      1.87873411e-06 1.88792199e-01 2.20916746e-03</_>
    <_>
      1.97508234e-06 1.98473841e-01 2.23970902e-03</_>
    <_>
      1.77121274e-06 1.80240586e-01 2.18880642e-03</_>
    <_>
      1.72285536e-06 1.81976348e-01 2.21425784e-03</_>
    <_>
      1.72309467e-06 1.78657517e-01 2.19389680e-03</_>
    <_>
      1.69157579e-06 1.81986541e-01 2.22443813e-03</_>
    <_>
      1.74345053e-06 1.86425224e-01 2.23461865e-03</_>
    <_>
      1.81572705e-06 1.95343345e-01 2.26516020e-03</_>
    <_>
      1.69674740e-06 1.88150823e-01 2.26007006e-03</_>
    <_>
      1.71737838e-06 1.85890749e-01 2.23970902e-03</_>
    <_>
      1.78389246e-06 1.95445150e-01 2.27534072e-03</_>
    <_>
      1.79927019e-06 1.97130024e-01 2.28043087e-03</_>
    <_>
      1.75262824e-06 1.95516407e-01 2.28552124e-03</_>
    <_>
      1.82568351e-06 1.97613597e-01 2.27534072e-03</_>
    <_>
      1.81464782e-06 1.98814899e-01 2.28552124e-03</_>
    <_>
      1.88757076e-06 2.04312354e-01 2.29570176e-03</_>
    <_>
      1.97694544e-06 2.11392894e-01 2.31097243e-03</_>
    <_>
      2.08951610e-06 2.19348952e-01 2.32624309e-03</_>
    <_>
      1.84218618e-06 2.03100890e-02 7.27905426e-04</_>
    <_>
      1.74522711e-06 1.92411356e-02 7.17724906e-04</_>
    <_>
      9.20851278e-07 3.64665352e-02 1.19620818e-03</_>
    <_>
      1.14530565e-06 4.58122306e-02 1.24711066e-03</_>
    <_>
      1.18436321e-06 4.83268127e-02 1.26747170e-03</_>
    <_>
      1.20622076e-06 5.37021123e-02 1.32855459e-03</_>
    <_>
      1.31601735e-06 5.53055406e-02 1.31328392e-03</_>
    <_>
      1.25446604e-06 5.58501966e-02 1.33873511e-03</_>
    <_>
      1.32246680e-06 5.50357588e-02 1.30819366e-03</_>
    <_>
      1.45788772e-06 6.18668720e-02 1.34891563e-03</_>
    <_>
      1.86888451e-06 8.00797790e-02 1.44054007e-03</_>
    <_>
      1.63881032e-06 6.88710511e-02 1.37945707e-03</_>
    <_>
      1.83345628e-06 8.16272125e-02 1.46090111e-03</_>
    <_>
      1.61633682e-06 7.19608292e-02 1.41508889e-03</_>
    <_>
      1.57164448e-06 7.40071088e-02 1.44563033e-03</_>
    <_>
      1.92668426e-06 8.82343501e-02 1.50162308e-03</_>
    <_>
      1.78275752e-06 8.39483663e-02 1.49144256e-03</_>
    <_>
      1.84462942e-06 8.76642466e-02 1.51180360e-03</_>
    <_>
      2.07812923e-06 9.87609848e-02 1.56270608e-03</_>
    <_>
      2.11512520e-06 1.01443544e-01 1.57797674e-03</_>
    <_>
      1.99482724e-06 9.83130410e-02 1.57288648e-03</_>
    <_>
      1.96668861e-06 9.51876342e-02 1.55252556e-03</_>
    <_>
      1.98472821e-06 9.43222865e-02 1.54234504e-03</_>
    <_>
      1.98472821e-06 9.43222865e-02 1.54234504e-03</_>
    <_>
      1.93475216e-06 9.44953561e-02 1.55252556e-03</_>
    <_>
      1.88361560e-06 9.70608443e-02 1.58306700e-03</_>
    <_>
      1.90035746e-06 9.62056816e-02 1.57288648e-03</_>
    <_>
      1.90035746e-06 9.62056816e-02 1.57288648e-03</_>
    <_>
      1.95088842e-06 1.00527301e-01 1.59833778e-03</_>
    <_>
      1.85904503e-06 9.83435884e-02 1.59833778e-03</_>
    <_>
      1.88117747e-06 9.95143428e-02 1.60342804e-03</_>
    <_>
      1.85492195e-06 1.03311665e-01 1.63905974e-03</_>
    <_>
      1.85492195e-06 1.03311665e-01 1.63905974e-03</_>
    <_>
      1.78568939e-06 1.09827183e-01 1.70523301e-03</_>
    <_>
      1.93147935e-06 1.23631932e-01 1.77649641e-03</_>
    <_>
      1.69674740e-06 1.10331118e-01 1.73068419e-03</_>
    <_>
      1.92122229e-06 1.26894787e-01 1.80194771e-03</_>
    <_>
      2.00465161e-06 1.34474158e-01 1.83757942e-03</_>
    <_>
      1.95778557e-06 1.32346436e-01 1.83248916e-03</_>
    <_>
      1.84270527e-06 1.43438086e-01 1.93429412e-03</_>
    <_>
      1.84270527e-06 1.43438086e-01 1.93429412e-03</_>
    <_>
      1.82177416e-06 1.47973493e-01 1.96992583e-03</_>
    <_>
      1.74868842e-06 1.51149809e-01 2.01064791e-03</_>
    <_>
      1.58092905e-06 1.35721266e-01 1.95465516e-03</_>
    <_>
      1.57677550e-06 1.39085934e-01 1.98010635e-03</_>
    <_>
      1.67301687e-06 1.36846215e-01 1.93429412e-03</_>
    <_>
      1.89775619e-06 1.56316414e-01 2.00555753e-03</_>
    <_>
      1.95096459e-06 1.60699114e-01 2.02082843e-03</_>
    <_>
      1.94418953e-06 1.61259040e-01 2.02591857e-03</_>
    <_>
      2.05738138e-06 1.69464529e-01 2.05136975e-03</_>
    <_>
      1.88002196e-06 1.54855520e-01 2.00046739e-03</_>
    <_>
      2.17395814e-06 1.80316940e-01 2.09209183e-03</_>
    <_>
      2.23474080e-06 1.84073538e-01 2.10227235e-03</_>
    <_>
      2.33302831e-06 1.93510860e-01 2.13790406e-03</_>
    <_>
      2.21243045e-06 2.07162902e-01 2.23461865e-03</_>
    <_>
      2.42140027e-06 2.00840816e-01 2.16335524e-03</_>
    <_>
      2.45675210e-06 2.03772798e-01 2.17353576e-03</_>
    <_>
      2.28000863e-06 1.89112887e-01 2.12263339e-03</_>
    <_>
      2.49209870e-06 2.06704780e-01 2.18371628e-03</_>
    <_>
      2.14848160e-06 2.03813523e-01 2.22952850e-03</_>
    <_>
      2.27182340e-06 2.01746881e-01 2.19389680e-03</_>
    <_>
      2.34533672e-06 2.01344743e-01 2.17862590e-03</_>
    <_>
      2.29061129e-06 2.06155032e-01 2.21425784e-03</_>
    <_>
      2.35336915e-06 2.00657561e-01 2.17353576e-03</_>
    <_>
      2.29321768e-06 1.96870416e-01 2.16335524e-03</_>
    <_>
      2.37079803e-06 2.02143922e-01 2.17862590e-03</_>
    <_>
      2.03303989e-06 2.25441977e-01 2.37205531e-03</_>
    <_>
      1.98790963e-06 2.27106497e-01 2.39241635e-03</_>
    <_>
      2.14089710e-06 2.47487843e-01 2.45858962e-03</_>
    <_>
      1.99442525e-06 2.33275875e-01 2.42295791e-03</_>
    <_>
      2.16888839e-06 2.58151919e-01 2.50440184e-03</_>
    <_>
      2.12336113e-06 2.60111660e-01 2.52476288e-03</_>
    <_>
      1.89690115e-06 2.63914078e-01 2.60620681e-03</_>
    <_>
      1.91746562e-06 2.61083901e-01 2.58584577e-03</_>
    <_>
      1.89715047e-06 2.75392592e-01 2.66219955e-03</_>
    <_>
      1.93266010e-06 2.70332873e-01 2.62656785e-03</_>
    <_>
      1.91051254e-06 2.77331978e-01 2.66728969e-03</_>
    <_>
      1.94548761e-06 2.83893287e-01 2.68765073e-03</_>
    <_>
      1.91710433e-06 2.84163088e-01 2.69783125e-03</_>
    <_>
      1.97296481e-06 2.95488864e-01 2.73346296e-03</_>
    <_>
      1.99643591e-06 2.95921534e-01 2.72837281e-03</_>
    <_>
      2.06002323e-06 3.02182555e-01 2.73855333e-03</_>
    <_>
      2.08898678e-06 3.09639752e-01 2.76400452e-03</_>
    <_>
      2.15460000e-06 3.07858169e-01 2.73855333e-03</_>
    <_>
      2.14744819e-06 3.16654116e-01 2.77927518e-03</_>
    <_>
      2.18344644e-06 3.15289944e-01 2.76400452e-03</_>
    <_>
      2.14950978e-06 3.20268214e-01 2.79454608e-03</_>
    <_>
      2.17218690e-06 3.28697652e-01 2.82508740e-03</_>
    <_>
      2.17966954e-06 3.31527829e-01 2.83526792e-03</_>
    <_>
      2.11987935e-06 3.40878606e-01 2.89126066e-03</_>
    <_>
      2.20750303e-06 3.39214116e-01 2.86071911e-03</_>
    <_>
      2.15949672e-06 3.38643998e-01 2.87089963e-03</_>
    <_>
      2.12517830e-06 3.40028554e-01 2.88617052e-03</_>
    <_>
      2.08637539e-06 3.42217356e-01 2.90653133e-03</_>
    <_>
      2.04608114e-06 3.40598643e-01 2.91162170e-03</_>
    <_>
      2.00898330e-06 3.42670381e-01 2.93198274e-03</_>
    <_>
      1.98703424e-06 3.42217356e-01 2.93707289e-03</_>
    <_>
      2.01156922e-06 3.46442252e-01 2.94725341e-03</_>
    <_>
      2.06062896e-06 3.54892075e-01 2.96761445e-03</_>
    <_>
      2.09742643e-06 3.61229420e-01 2.98288511e-03</_>
    <_>
      2.12195619e-06 3.65454346e-01 2.99306563e-03</_>
    <_>
      2.19555091e-06 3.78129035e-01 3.02360719e-03</_>
    <_>
      2.29367583e-06 3.95028681e-01 3.06432904e-03</_>
    <_>
      2.36727055e-06 4.07703400e-01 3.09487060e-03</_>
    <_>
      2.51446022e-06 4.33052808e-01 3.15595348e-03</_>
    <_>
      2.51446022e-06 4.33052808e-01 3.15595348e-03</_>
    <_>
      2.61258469e-06 4.49952453e-01 3.19667556e-03</_>
    <_>
      9.20576383e-07 3.25368643e-02 1.13003503e-03</_>
    <_>
      8.88772490e-07 3.17478739e-02 1.13003503e-03</_>
    <_>
      9.37679602e-07 3.38501483e-02 1.14530569e-03</_>
    <_>
      9.42637541e-07 3.36719900e-02 1.14021543e-03</_>
    <_>
      1.05036747e-06 3.75202149e-02 1.16057647e-03</_>
    <_>
      1.10201324e-06 4.14753370e-02 1.20129844e-03</_>
    <_>
      1.14856857e-06 4.36743237e-02 1.21656922e-03</_>
    <_>
      1.20829236e-06 4.73698452e-02 1.24711066e-03</_>
    <_>
      1.43635600e-06 5.86091131e-02 1.31837418e-03</_>
    <_>
      1.35247888e-06 5.79524711e-02 1.33364485e-03</_>
    <_>
      1.44722867e-06 6.02278113e-02 1.33364485e-03</_>
    <_>
      1.58470095e-06 7.12227449e-02 1.41508889e-03</_>
    <_>
      1.52461575e-06 6.53282404e-02 1.36927667e-03</_>
    <_>
      1.59838862e-06 6.84892833e-02 1.38454733e-03</_>
    <_>
      1.64756557e-06 7.05966428e-02 1.39472785e-03</_>
    <_>
      1.50905487e-06 7.70765319e-02 1.49144256e-03</_>
    <_>
      1.64045969e-06 7.30348751e-02 1.42017915e-03</_>
    <_>
      1.75277592e-06 7.87766725e-02 1.45072059e-03</_>
    <_>
      1.80079735e-06 8.09349343e-02 1.46090111e-03</_>
    <_>
      1.76553715e-06 8.70126933e-02 1.52198400e-03</_>
    <_>
      1.82480801e-06 8.20140690e-02 1.46599137e-03</_>
    <_>
      1.78275752e-06 8.39483663e-02 1.49144256e-03</_>
    <_>
      2.10712324e-06 9.74018872e-02 1.54743530e-03</_>
    <_>
      2.11116503e-06 9.94125381e-02 1.56270608e-03</_>
    <_>
      2.04539379e-06 9.80992541e-02 1.56270608e-03</_>
    <_>
      2.01296393e-06 9.74273384e-02 1.56270608e-03</_>
    <_>
      2.09188306e-06 1.00328781e-01 1.57288648e-03</_>
    <_>
      1.99085184e-06 1.00786902e-01 1.59324752e-03</_>
    <_>
      1.99482724e-06 9.83130410e-02 1.57288648e-03</_>
    <_>
      2.00385239e-06 9.78701934e-02 1.56779634e-03</_>
    <_>
      1.93156575e-06 9.69183147e-02 1.57288648e-03</_>
    <_>
      1.91447270e-06 9.77836549e-02 1.58306700e-03</_>
    <_>
      1.95952134e-06 1.00084446e-01 1.59324752e-03</_>
    <_>
      1.94560471e-06 9.84962955e-02 1.58306700e-03</_>
    <_>
      1.93385131e-06 1.01413004e-01 1.60851830e-03</_>
    <_>
      1.94757467e-06 1.03026614e-01 1.61869870e-03</_>
    <_>
      1.94757467e-06 1.03026614e-01 1.61869870e-03</_>
    <_>
      1.94434233e-06 1.05556466e-01 1.63905974e-03</_>
    <_>
      1.85668819e-06 1.10539816e-01 1.69505249e-03</_>
    <_>
      1.70970225e-06 1.17360748e-01 1.78158667e-03</_>
    <_>
      1.76277308e-06 1.16429232e-01 1.76122575e-03</_>
    <_>
      1.77566665e-06 1.18195549e-01 1.77140615e-03</_>
    <_>
      1.75459309e-06 1.22288108e-01 1.80703797e-03</_>
    <_>
      1.67810197e-06 1.25067383e-01 1.84775994e-03</_>
    <_>
      1.74041679e-06 1.28762901e-01 1.85794046e-03</_>
    <_>
      1.75330536e-06 1.27816126e-01 1.84775994e-03</_>
    <_>
      1.66064740e-06 1.32061392e-01 1.90375268e-03</_>
    <_>
      1.61398009e-06 1.32941991e-01 1.92411360e-03</_>
    <_>
      1.66718849e-06 1.37324706e-01 1.93938438e-03</_>
    <_>
      1.60377419e-06 1.36744410e-01 1.95465516e-03</_>
    <_>
      1.63171455e-06 1.34402901e-01 1.92920386e-03</_>
    <_>
      1.63171455e-06 1.34402901e-01 1.92920386e-03</_>
    <_>
      1.64945402e-06 1.35863796e-01 1.93429412e-03</_>
    <_>
      1.70266242e-06 1.40246511e-01 1.94956490e-03</_>
    <_>
      1.69081750e-06 1.38302028e-01 1.93938438e-03</_>
    <_>
      1.73813123e-06 1.43168300e-01 1.95974531e-03</_>
    <_>
      1.83320174e-06 1.49948522e-01 1.98010635e-03</_>
    <_>
      1.77980507e-06 1.45581082e-01 1.96483568e-03</_>
    <_>
      1.93999017e-06 1.58683375e-01 2.01064791e-03</_>
    <_>
      1.93999017e-06 1.58683375e-01 2.01064791e-03</_>
    <_>
      2.02897786e-06 1.65962428e-01 2.03609909e-03</_>
    <_>
      2.08237452e-06 1.70329869e-01 2.05136975e-03</_>
    <_>
      2.10016992e-06 1.71785682e-01 2.05646013e-03</_>
    <_>
      2.00325690e-06 1.92513168e-01 2.19898694e-03</_>
    <_>
      1.89252864e-06 1.84226245e-01 2.17862590e-03</_>
    <_>
      2.07199037e-06 2.01695979e-01 2.23461865e-03</_>
    <_>
      1.88467948e-06 1.88196644e-01 2.20407732e-03</_>
    <_>
      1.94911172e-06 1.94630712e-01 2.22443813e-03</_>
    <_>
      2.16777357e-06 2.17837155e-01 2.30079191e-03</_>
    <_>
      2.17651859e-06 1.83045313e-01 2.10736250e-03</_>
    <_>
      2.34257277e-06 1.95653856e-01 2.14808458e-03</_>
    <_>
      2.22590415e-06 1.93709373e-01 2.15826510e-03</_>
    <_>
      2.12959162e-06 1.84073538e-01 2.12263339e-03</_>
    <_>
      2.33302831e-06 1.93510860e-01 2.13790406e-03</_>
    <_>
      1.90304002e-06 2.05987051e-01 2.30079191e-03</_>
    <_>
      1.93184064e-06 2.12935239e-01 2.33133347e-03</_>
    <_>
      2.00246791e-06 2.22051874e-01 2.36187503e-03</_>
    <_>
      1.99380429e-06 2.26434574e-01 2.38732621e-03</_>
    <_>
      1.97954137e-06 2.31535003e-01 2.41786754e-03</_>
    <_>
      2.01828834e-06 2.37449870e-01 2.43822858e-03</_>
    <_>
      2.00659088e-06 2.38834426e-01 2.44840910e-03</_>
    <_>
      1.99817669e-06 2.43380010e-01 2.47386028e-03</_>
    <_>
      1.98678981e-06 2.44774744e-01 2.48404080e-03</_>
    <_>
      2.00781756e-06 2.60213464e-01 2.55530444e-03</_>
    <_>
      1.98881071e-06 2.66413391e-01 2.59093614e-03</_>
    <_>
      2.03053537e-06 2.72002488e-01 2.60620681e-03</_>
    <_>
      1.98180146e-06 2.78691053e-01 2.65201903e-03</_>
    <_>
      1.95572920e-06 2.82406926e-01 2.67747021e-03</_>
    <_>
      1.98774683e-06 2.85522163e-01 2.68256059e-03</_>
    <_>
      2.02544015e-06 2.95560151e-01 2.71819229e-03</_>
    <_>
      2.09206632e-06 3.05282503e-01 2.74364348e-03</_>
    <_>
      2.04140315e-06 3.01016897e-01 2.73855333e-03</_>
    <_>
      2.02570982e-06 3.11278820e-01 2.78945570e-03</_>
    <_>
      2.01032708e-06 3.13661069e-01 2.80472636e-03</_>
    <_>
      2.08002280e-06 3.22894782e-01 2.82508740e-03</_>
    <_>
      2.10586609e-06 3.26905876e-01 2.83526792e-03</_>
    <_>
      2.13170415e-06 3.30917001e-01 2.84544844e-03</_>
    <_>
      2.14462307e-06 3.32922548e-01 2.85053859e-03</_>
    <_>
      2.17046136e-06 3.36933672e-01 2.86071911e-03</_>
    <_>
      2.18338027e-06 3.38939220e-01 2.86580948e-03</_>
    <_>
      2.22213748e-06 3.44955891e-01 2.88108015e-03</_>
    <_>
      2.07061089e-06 2.88311634e-02 8.44981114e-04</_>
    <_>
      2.03609920e-06 3.18140462e-02 8.90793337e-04</_>
    <_>
      2.08616666e-06 3.10505107e-02 8.75522615e-04</_>
    <_>
      2.07851622e-06 2.99306568e-02 8.60251836e-04</_>
    <_>
      2.15197338e-06 3.25572230e-02 8.90793337e-04</_>
    <_>
      2.17566867e-06 3.34531069e-02 9.00973857e-04</_>
    <_>
      2.17566867e-06 3.34531069e-02 9.00973857e-04</_>
    <_>
      2.23474080e-06 3.38094234e-02 9.00973857e-04</_>
    <_>
      2.15826503e-06 3.37228924e-02 9.06064059e-04</_>
    <_>
      2.15826503e-06 3.37228924e-02 9.06064059e-04</_>
    <_>
      2.19898698e-06 3.43591720e-02 9.11154319e-04</_>
    <_>
      2.10768326e-06 3.45322415e-02 9.21334838e-04</_>
    <_>
      2.18153241e-06 3.46340463e-02 9.16244579e-04</_>
    <_>
      2.12427744e-06 3.42624560e-02 9.16244579e-04</_>
    <_>
      2.11441261e-06 3.57335396e-02 9.36605560e-04</_>
    <_>
      2.07525318e-06 3.50718051e-02 9.31515300e-04</_>
    <_>
      2.08237452e-06 3.62832844e-02 9.46786080e-04</_>
    <_>
      1.90451624e-06 4.11546528e-02 1.02823006e-03</_>
    <_>
      2.15949672e-06 3.76271121e-02 9.56966542e-04</_>
    <_>
      2.02922229e-06 4.44480442e-02 1.05368125e-03</_>
    <_>
      1.94727431e-06 4.32314724e-02 1.04859099e-03</_>
    <_>
      1.92148195e-06 4.38117608e-02 1.05877151e-03</_>
    <_>
      2.92772211e-06 6.85350969e-02 1.22674974e-03</_>
    <_>
      2.32886987e-06 5.45165539e-02 1.13512517e-03</_>
    <_>
      2.95562700e-06 7.10089579e-02 1.24711066e-03</_>
    <_>
      2.95039899e-06 7.27243721e-02 1.26238144e-03</_>
    <_>
      2.85933470e-06 7.50404298e-02 1.28783262e-03</_>
    <_>
      2.82446649e-06 7.59668574e-02 1.29801314e-03</_>
    <_>
      2.85407123e-06 8.54194462e-02 1.37436693e-03</_>
    <_>
      2.68810891e-06 8.51700231e-02 1.38454733e-03</_>
    <_>
      2.48117522e-06 9.82570499e-02 1.50671334e-03</_>
    <_>
      2.35832704e-06 1.12077072e-01 1.62378896e-03</_>
    <_>
      2.34755612e-06 1.12591185e-01 1.62887922e-03</_>
    <_>
      2.15197338e-06 1.30228892e-01 1.78158667e-03</_>
    <_>
      2.14326406e-06 1.30758286e-01 1.78667693e-03</_>
    <_>
      2.18153241e-06 1.30946621e-01 1.78158667e-03</_>
    <_>
      2.11255451e-06 1.35222435e-01 1.82230864e-03</_>
    <_>
      1.92387438e-06 1.24120601e-01 1.78158667e-03</_>
    <_>
      2.02383171e-06 1.25479698e-01 1.77140615e-03</_>
    <_>
      2.04014077e-06 1.29556984e-01 1.79685745e-03</_>
    <_>
      1.57106422e-06 9.27697644e-02 1.61869870e-03</_>
    <_>
      1.55011787e-06 9.15328339e-02 1.61360856e-03</_>
    <_>
      1.63064044e-06 8.70126933e-02 1.55252556e-03</_>
    <_>
      1.57973284e-06 8.50274935e-02 1.54743530e-03</_>
    <_>
      1.51151346e-06 7.92653337e-02 1.51180360e-03</_>
    <_>
      1.50494191e-06 7.96114728e-02 1.51689386e-03</_>
    <_>
      1.49842640e-06 7.99576119e-02 1.52198400e-03</_>
    <_>
      1.51814595e-06 7.89192021e-02 1.50671334e-03</_>
    <_>
      1.51216500e-06 8.63764137e-02 1.57797674e-03</_>
    <_>
      1.56443173e-06 7.43481591e-02 1.45072059e-03</_>
    <_>
      1.36721508e-06 8.00695941e-02 1.56270608e-03</_>
    <_>
      1.41158171e-06 7.99576119e-02 1.54743530e-03</_>
    <_>
      1.49833988e-06 9.21538472e-02 1.63396948e-03</_>
    <_>
      1.52908501e-06 9.78752822e-02 1.67469145e-03</_>
    <_>
      1.28227418e-06 8.80205631e-02 1.66960119e-03</_>
    <_>
      1.34968934e-06 9.40677747e-02 1.70014275e-03</_>
    <_>
      1.31055049e-06 9.41288620e-02 1.71541341e-03</_>
    <_>
      1.33360925e-06 9.79414582e-02 1.74086471e-03</_>
    <_>
      1.30338333e-06 1.08860038e-01 1.84775994e-03</_>
    <_>
      1.24659152e-06 1.07750364e-01 1.86303060e-03</_>
    <_>
      1.33514652e-06 1.24202043e-01 1.95974531e-03</_>
    <_>
      1.37929419e-06 1.32550046e-01 2.00555753e-03</_>
    <_>
      1.63787377e-06 1.64588064e-01 2.13281368e-03</_>
    <_>
      1.55056580e-06 1.63778722e-01 2.15826510e-03</_>
    <_>
      1.89210095e-06 1.74860194e-01 2.12263339e-03</_>
    <_>
      1.64254141e-06 1.60917997e-01 2.10736250e-03</_>
    <_>
      1.57106422e-06 1.64924026e-01 2.15826510e-03</_>
    <_>
      1.57593047e-06 1.64415002e-01 2.15317472e-03</_>
    <_>
      1.68043334e-06 1.63580194e-01 2.11245287e-03</_>
    <_>
      1.70215333e-06 1.67825460e-01 2.13281368e-03</_>
    <_>
      1.76567971e-06 1.80805594e-01 2.19389680e-03</_>
    <_>
      1.74927879e-06 1.82500646e-01 2.20916746e-03</_>
    <_>
      1.72261616e-06 1.85325742e-01 2.23461865e-03</_>
    <_>
      1.76441222e-06 1.87514544e-01 2.23461865e-03</_>
    <_>
      1.78550113e-06 1.88593671e-01 2.23461865e-03</_>
    <_>
      1.79298377e-06 2.01217487e-01 2.30588228e-03</_>
    <_>
      1.76600543e-06 2.07768634e-01 2.35169451e-03</_>
    <_>
      1.86078591e-06 2.03869507e-01 2.30079191e-03</_>
    <_>
      1.80472182e-06 1.96534470e-01 2.27534072e-03</_>
    <_>
      1.95530151e-06 1.94014788e-01 2.21934798e-03</_>
    <_>
      1.79568667e-06 2.11260542e-01 2.36187503e-03</_>
    <_>
      1.84690475e-06 2.12248057e-01 2.35169451e-03</_>
    <_>
      1.85930969e-06 2.07417414e-01 2.32115295e-03</_>
    <_>
      1.93616734e-06 2.05768168e-01 2.29061139e-03</_>
    <_>
      1.85376120e-06 2.08038419e-01 2.32624309e-03</_>
    <_>
      1.79482640e-06 2.14869529e-01 2.38223583e-03</_>
    <_>
      1.82101576e-06 2.29493812e-01 2.45349947e-03</_>
    <_>
      2.07548737e-06 2.34314278e-01 2.40768725e-03</_>
    <_>
      2.06648792e-06 2.31911689e-01 2.39750673e-03</_>
    <_>
      2.09063592e-06 2.36024603e-01 2.41277739e-03</_>
    <_>
      2.07548737e-06 2.34314278e-01 2.40768725e-03</_>
    <_>
      1.91650884e-06 2.11245283e-01 2.32624309e-03</_>
    <_>
      1.94354811e-06 2.11652502e-01 2.32115295e-03</_>
    <_>
      1.98381213e-06 2.17348486e-01 2.34151399e-03</_>
    <_>
      1.97440022e-06 2.15012059e-01 2.33133347e-03</_>
    <_>
      1.81178200e-06 2.27045402e-01 2.44331895e-03</_>
    <_>
      1.78580649e-06 2.34019041e-01 2.48913118e-03</_>
    <_>
      1.91765412e-06 2.49910802e-01 2.52985302e-03</_>
    <_>
      1.89636671e-06 2.41690055e-01 2.49422132e-03</_>
    <_>
      1.87535409e-06 2.44398057e-01 2.51458236e-03</_>
    <_>
      2.03907689e-06 2.38498464e-01 2.43822858e-03</_>
    <_>
      1.94915765e-06 2.56838620e-01 2.55530444e-03</_>
    <_>
      1.95778557e-06 2.59399027e-01 2.56548473e-03</_>
    <_>
      2.08237452e-06 2.58014470e-01 2.52476288e-03</_>
    <_>
      2.13556245e-06 2.58625299e-01 2.51458236e-03</_>
    <_>
      2.20432162e-06 2.71574885e-01 2.56039458e-03</_>
    <_>
      2.00895283e-06 2.82508731e-01 2.66219955e-03</_>
    <_>
      2.14921442e-06 2.78538346e-01 2.60620681e-03</_>
    <_>
      2.09598579e-06 2.93177903e-01 2.68765073e-03</_>
    <_>
      2.09280961e-06 2.97448635e-01 2.70801177e-03</_>
    <_>
      2.08938377e-06 2.75316238e-01 2.60620681e-03</_>
    <_>
      2.10095891e-06 2.73799330e-01 2.59602629e-03</_>
    <_>
      2.04731805e-06 2.69772947e-01 2.59093614e-03</_>
    <_>
      1.72800674e-06 2.49523938e-01 2.59093614e-03</_>
    <_>
      1.90716310e-06 2.73946941e-01 2.65201903e-03</_>
    <_>
      1.68781924e-06 2.43721053e-01 2.57566525e-03</_>
    <_>
      1.81698931e-06 2.63756275e-01 2.63165799e-03</_>
    <_>
      1.74105298e-06 2.55392998e-01 2.61638733e-03</_>
    <_>
      1.70542648e-06 2.60727584e-01 2.65710917e-03</_>
    <_>
      1.64076505e-06 2.54705817e-01 2.65201903e-03</_>
    <_>
      1.65301719e-06 2.48852029e-01 2.61638733e-03</_>
    <_>
      1.61430069e-06 2.46795565e-01 2.62147747e-03</_>
    <_>
      1.58908870e-06 2.46683583e-01 2.63165799e-03</_>
    <_>
      1.59391436e-06 2.49951527e-01 2.64692889e-03</_>
    <_>
      1.52094060e-06 2.61944145e-01 2.74364348e-03</_>
    <_>
      1.56917565e-06 2.49814078e-01 2.65710917e-03</_>
    <_>
      1.49641073e-06 2.57719249e-01 2.73346296e-03</_>
    <_>
      1.49784614e-06 2.61709988e-01 2.75382400e-03</_>
    <_>
      1.51947461e-06 2.45553553e-01 2.65710917e-03</_>
    <_>
      1.57012767e-06 2.53738672e-01 2.67747021e-03</_>
    <_>
      1.51097390e-06 2.55235195e-01 2.71310192e-03</_>
    <_>
      1.53320809e-06 2.64056593e-01 2.74873385e-03</_>
    <_>
      1.40378347e-06 2.44102821e-01 2.70801177e-03</_>
    <_>
      1.57012767e-06 2.53738672e-01 2.67747021e-03</_>
    <_>
      1.67559244e-06 2.69436985e-01 2.71310192e-03</_>
    <_>
      3.16983460e-06 1.53420061e-01 1.81721838e-03</_>
    <_>
      2.99052044e-06 1.72253981e-01 1.93938438e-03</_>
    <_>
      3.01173145e-06 1.73475638e-01 1.94447464e-03</_>
    <_>
      3.07535947e-06 1.77140623e-01 1.95974531e-03</_>
    <_>
      3.14397607e-06 1.78087398e-01 1.95974531e-03</_>
    <_>
      3.18140474e-06 1.83248922e-01 1.98519649e-03</_>
    <_>
      3.21601328e-06 1.83701947e-01 1.98519649e-03</_>
    <_>
      3.30758689e-06 1.85783863e-01 1.99028687e-03</_>
    <_>
      3.36436847e-06 1.82648271e-01 1.96992583e-03</_>
    <_>
      3.40806332e-06 1.85020328e-01 1.98010635e-03</_>
    <_>
      3.51729500e-06 1.90950468e-01 2.00555753e-03</_>
    <_>
      3.53245878e-06 1.90130934e-01 2.00046739e-03</_>
    <_>
      3.34942865e-06 1.78728774e-01 1.94956490e-03</_>
    <_>
      3.54774988e-06 1.89311400e-01 1.99537701e-03</_>
    <_>
      1.30999058e-06 2.42295787e-02 8.70432355e-04</_>
    <_>
      2.45933279e-06 1.94803774e-02 6.71912683e-04</_>
    <_>
      2.57437750e-06 1.94854680e-02 6.66822423e-04</_>
    <_>
      1.58609066e-06 3.02055292e-02 9.21334838e-04</_>
    <_>
      1.64684275e-06 3.04600429e-02 9.16244579e-04</_>
    <_>
      1.77052050e-06 3.37177999e-02 9.46786080e-04</_>
    <_>
      1.94627160e-06 3.59982327e-02 9.56966542e-04</_>
    <_>
      2.34077083e-06 4.39339280e-02 1.01804954e-03</_>
    <_>
      2.65578069e-06 5.05767018e-02 1.06895203e-03</_>
    <_>
      2.87709463e-06 5.47914244e-02 1.09949347e-03</_>
    <_>
      2.89301693e-06 5.58960102e-02 1.10967399e-03</_>
    <_>
      2.94506981e-06 5.77234067e-02 1.12494477e-03</_>
    <_>
      2.92418440e-06 5.81357181e-02 1.13003503e-03</_>
    <_>
      2.86774366e-06 5.78252152e-02 1.13003503e-03</_>
    <_>
      2.82027213e-06 6.17752448e-02 1.17075699e-03</_>
    <_>
      2.82791757e-06 5.86396530e-02 1.14021543e-03</_>
    <_>
      3.08500057e-06 5.37530147e-02 1.07913255e-03</_>
    <_>
      2.81921325e-06 4.76447195e-02 1.02823006e-03</_>
    <_>
      2.86326440e-06 5.93726486e-02 1.14530569e-03</_>
    <_>
      2.59778244e-06 5.46183586e-02 1.11476425e-03</_>
    <_>
      2.56220665e-06 5.68835177e-02 1.14021543e-03</_>
    <_>
      2.68086546e-06 6.03194349e-02 1.16566673e-03</_>
    <_>
      2.57998681e-06 5.49950376e-02 1.11985451e-03</_>
    <_>
      2.75148750e-06 6.02685325e-02 1.16057647e-03</_>
    <_>
      2.59636727e-06 5.76419644e-02 1.14530569e-03</_>
    <_>
      2.72810803e-06 6.38622493e-02 1.19620818e-03</_>
    <_>
      2.51249526e-06 6.11440539e-02 1.18602766e-03</_>
    <_>
      2.74090485e-06 6.67026043e-02 1.22165948e-03</_>
    <_>
      2.73600835e-06 7.00418055e-02 1.25220092e-03</_>
    <_>
      2.75063258e-06 7.12990984e-02 1.26238144e-03</_>
    <_>
      2.70222927e-06 7.09173307e-02 1.26238144e-03</_>
    <_>
      2.64810478e-06 7.92551562e-02 1.33873511e-03</_>
    <_>
      2.61621426e-06 8.38261992e-02 1.37945707e-03</_>
    <_>
      2.42765623e-06 9.23116431e-02 1.46599137e-03</_>
    <_>
      2.21519940e-06 1.03352390e-01 1.57797674e-03</_>
    <_>
      2.04462026e-06 1.16790645e-01 1.70523301e-03</_>
    <_>
      2.02782235e-06 1.22715689e-01 1.75104523e-03</_>
    <_>
      2.17266529e-06 1.31481096e-01 1.78667693e-03</_>
    <_>
      2.20231095e-06 1.32193729e-01 1.78667693e-03</_>
    <_>
      2.19335720e-06 1.32733300e-01 1.79176719e-03</_>
    <_>
      2.51446022e-06 1.55899018e-01 1.89357216e-03</_>
    <_>
      2.15197338e-06 1.30228892e-01 1.78158667e-03</_>
    <_>
      2.08143797e-06 1.26986414e-01 1.77140615e-03</_>
    <_>
      2.34241497e-06 1.19641185e-01 1.67978171e-03</_>
    <_>
      1.75882315e-06 1.06437080e-01 1.68487197e-03</_>
    <_>
      1.83070244e-06 9.51672718e-02 1.57797674e-03</_>
    <_>
      1.77249547e-06 8.89368057e-02 1.53725478e-03</_>
    <_>
      1.76462083e-06 8.93338472e-02 1.54234504e-03</_>
    <_>
      1.72664761e-06 8.89724419e-02 1.54743530e-03</_>
    <_>
      1.70422516e-06 8.78169537e-02 1.54234504e-03</_>
    <_>
      1.61766548e-06 9.00973827e-02 1.58306700e-03</_>
    <_>
      1.74388333e-06 8.13625157e-02 1.47617178e-03</_>
    <_>
      1.56622843e-06 8.57604891e-02 1.55761582e-03</_>
    <_>
      1.42697468e-06 8.15101340e-02 1.55761582e-03</_>
    <_>
      1.50071185e-06 9.45462584e-02 1.65433052e-03</_>
    <_>
      1.48221909e-06 1.00970149e-01 1.71541341e-03</_>
    <_>
      1.27712281e-06 9.94125381e-02 1.77649641e-03</_>
    <_>
      1.34459401e-06 9.44240913e-02 1.70523301e-03</_>
    <_>
      1.22511062e-06 1.06615238e-01 1.86303060e-03</_>
    <_>
      1.25962254e-06 1.09618485e-01 1.87321112e-03</_>
    <_>
      1.35740117e-06 9.89544168e-02 1.74086471e-03</_>
    <_>
      1.37977270e-06 1.02833182e-01 1.76631589e-03</_>
    <_>
      1.30338333e-06 1.08860038e-01 1.84775994e-03</_>
    <_>
      1.29888872e-06 1.09236717e-01 1.85285020e-03</_>
    <_>
      1.64201720e-06 1.57797679e-01 2.08700146e-03</_>
    <_>
      1.84429337e-06 1.40490830e-01 1.91393308e-03</_>
    <_>
      1.89019227e-06 1.78148493e-01 2.14299420e-03</_>
    <_>
      1.91090453e-06 1.82454839e-01 2.16335524e-03</_>
    <_>
      1.72846478e-06 1.78102672e-01 2.18880642e-03</_>
    <_>
      1.83314580e-06 1.77303508e-01 2.15317472e-03</_>
    <_>
      1.75078560e-06 1.72620475e-01 2.14808458e-03</_>
    <_>
      1.88269428e-06 1.60526052e-01 2.03609909e-03</_>
    <_>
      1.81671965e-06 1.60251170e-01 2.05136975e-03</_>
    <_>
      1.72846478e-06 1.78102672e-01 2.18880642e-03</_>
    <_>
      1.86474608e-06 1.71200305e-01 2.10736250e-03</_>
    <_>
      2.00576119e-06 1.82933316e-01 2.14299420e-03</_>
    <_>
      2.03609920e-06 1.89408109e-01 2.17353576e-03</_>
    <_>
      1.99617625e-06 1.86913893e-01 2.16844562e-03</_>
    <_>
      1.86078591e-06 2.03869507e-01 2.30079191e-03</_>
    <_>
      1.82451777e-06 2.01105505e-01 2.29570176e-03</_>
    <_>
      1.83003056e-06 2.00499758e-01 2.29061139e-03</_>
    <_>
      1.84960766e-06 2.05101356e-01 2.31097243e-03</_>
    <_>
      1.86339196e-06 2.10369751e-01 2.33642361e-03</_>
    <_>
      1.79298377e-06 2.01217487e-01 2.30588228e-03</_>
    <_>
      1.80279778e-06 2.03528464e-01 2.31606280e-03</_>
    <_>
      1.89369428e-06 2.13790402e-01 2.34660413e-03</_>
    <_>
      1.87535409e-06 2.19348952e-01 2.38223583e-03</_>
    <_>
      2.05651600e-06 2.50485986e-01 2.49422132e-03</_>
    <_>
      1.71176373e-06 1.96717709e-01 2.30588228e-03</_>
    <_>
      1.82224755e-06 2.08180949e-01 2.33642361e-03</_>
    <_>
      1.78807670e-06 2.22810328e-01 2.42804806e-03</_>
    <_>
      1.94811923e-06 2.04505786e-01 2.28043087e-03</_>
    <_>
      1.81152745e-06 2.09412783e-01 2.34660413e-03</_>
    <_>
      1.86988723e-06 2.19990328e-01 2.38732621e-03</_>
    <_>
      1.74607203e-06 2.06623331e-01 2.35169451e-03</_>
    <_>
      1.78605080e-06 2.08903760e-01 2.35169451e-03</_>
    <_>
      2.06403433e-06 2.22056970e-01 2.34660413e-03</_>
    <_>
      2.08870165e-06 2.26083353e-01 2.36187503e-03</_>
    <_>
      1.90701030e-06 2.29621068e-01 2.42804806e-03</_>
    <_>
      1.96232600e-06 2.33566016e-01 2.43313843e-03</_>
    <_>
      1.91427921e-06 2.35841349e-01 2.45858962e-03</_>
    <_>
      1.98995599e-06 2.47966319e-01 2.49931170e-03</_>
    <_>
      2.03609920e-06 2.56599396e-01 2.52985302e-03</_>
    <_>
      2.15123532e-06 2.42865890e-01 2.43313843e-03</_>
    <_>
      2.03325362e-06 2.60590136e-01 2.55021406e-03</_>
    <_>
      2.08237452e-06 2.58014470e-01 2.52476288e-03</_>
    <_>
      2.09013206e-06 2.67879367e-01 2.57057510e-03</_>
    <_>
      2.14250576e-06 2.68490195e-01 2.56039458e-03</_>
    <_>
      2.16514695e-06 2.72862732e-01 2.57566525e-03</_>
    <_>
      2.14921442e-06 2.78538346e-01 2.60620681e-03</_>
    <_>
      2.10095891e-06 2.73799330e-01 2.59602629e-03</_>
    <_>
      2.12684290e-06 2.74109840e-01 2.59093614e-03</_>
    <_>
      2.06965910e-06 2.74221808e-01 2.60620681e-03</_>
    <_>
      2.07793596e-06 2.76833117e-01 2.61638733e-03</_>
    <_>
      2.01432294e-06 2.81755388e-01 2.65710917e-03</_>
    <_>
      2.02500223e-06 2.72745639e-01 2.61129695e-03</_>
    <_>
      1.95572920e-06 2.82406926e-01 2.67747021e-03</_>
    <_>
      1.95884945e-06 2.66718805e-01 2.60111666e-03</_>
    <_>
      1.95884945e-06 2.66718805e-01 2.60111666e-03</_>
    <_>
      1.91228401e-06 2.61791438e-01 2.59093614e-03</_>
    <_>
      1.88831905e-06 2.61312962e-01 2.59602629e-03</_>
    <_>
      1.91054824e-06 2.65812725e-01 2.61129695e-03</_>
    <_>
      1.94107929e-06 2.72964537e-01 2.63674837e-03</_>
    <_>
      1.91728236e-06 2.72501320e-01 2.64183851e-03</_>
    <_>
      1.94745758e-06 2.79734552e-01 2.66728969e-03</_>
    <_>
      1.95059306e-06 2.83150107e-01 2.68256059e-03</_>
    <_>
      1.95369830e-06 2.86586046e-01 2.69783125e-03</_>
    <_>
      1.95677262e-06 2.90042311e-01 2.71310192e-03</_>
    <_>
      1.95170264e-06 2.90795654e-01 2.71819229e-03</_>
    <_>
      1.94779864e-06 2.99306571e-01 2.75891414e-03</_>
    <_>
      1.98099701e-06 2.98227429e-01 2.74364348e-03</_>
    <_>
      1.97166673e-06 3.07629108e-01 2.78945570e-03</_>
    <_>
      2.00485511e-06 3.06504160e-01 2.77418504e-03</_>
    <_>
      2.10362123e-06 3.23251098e-01 2.81999726e-03</_>
    <_>
      2.00485511e-06 3.06504160e-01 2.77418504e-03</_>
    <_>
      2.06994923e-06 3.16455603e-01 2.79963622e-03</_>
    <_>
      2.00485511e-06 3.06504160e-01 2.77418504e-03</_>
    <_>
      1.88768786e-06 2.88591594e-01 2.72837281e-03</_>
    <_>
      1.79958067e-06 2.82203317e-01 2.72837281e-03</_>
    <_>
      1.80787265e-06 2.84936786e-01 2.73855333e-03</_>
    <_>
      1.81611881e-06 2.87680447e-01 2.74873385e-03</_>
    <_>
      1.84169733e-06 2.91732281e-01 2.75891414e-03</_>
    <_>
      1.89285447e-06 2.99835950e-01 2.77927518e-03</_>
    <_>
      3.18989032e-06 1.79431234e-02 6.21010200e-04</_>
    <_>
      2.19335720e-06 3.31833251e-02 8.95883597e-04</_>
    <_>
      2.37545055e-06 3.42064649e-02 8.95883597e-04</_>
    <_>
      2.39788324e-06 3.51074375e-02 9.06064059e-04</_>
    <_>
      2.46167929e-06 3.66396010e-02 9.21334838e-04</_>
    <_>
      2.52443192e-06 3.81921269e-02 9.36605560e-04</_>
    <_>
      2.19163667e-06 4.54457328e-02 1.04859099e-03</_>
    <_>
      3.14905128e-06 4.38473932e-02 9.72237322e-04</_>
    <_>
      2.24672840e-06 4.72374968e-02 1.06386177e-03</_>
    <_>
      2.17136221e-06 4.44022305e-02 1.03841047e-03</_>
    <_>
      2.15628484e-06 4.47127372e-02 1.04350073e-03</_>
    <_>
      2.10630878e-06 4.42851558e-02 1.04350073e-03</_>
    <_>
      2.10016992e-06 4.29464206e-02 1.02823006e-03</_>
    <_>
      1.97376903e-06 4.26511839e-02 1.03841047e-03</_>
    <_>
      1.97376903e-06 4.26511839e-02 1.03841047e-03</_>
    <_>
      2.00742056e-06 4.04776484e-02 1.00786902e-03</_>
    <_>
      2.02897786e-06 4.14906070e-02 1.01804954e-03</_>
    <_>
      1.95242546e-06 4.16178666e-02 1.02823006e-03</_>
    <_>
      1.96043243e-06 4.29413281e-02 1.04350073e-03</_>
    <_>
      2.83945724e-06 6.13578446e-02 1.16566673e-03</_>
    <_>
      2.07003563e-06 4.65757661e-02 1.07404229e-03</_>
    <_>
      2.76423862e-06 6.30274490e-02 1.18602766e-03</_>
    <_>
      2.67733776e-06 6.34957477e-02 1.19620818e-03</_>
    <_>
      2.67398855e-06 6.67535067e-02 1.22674974e-03</_>
    <_>
      2.77353342e-06 6.74966872e-02 1.22674974e-03</_>
    <_>
      2.70222927e-06 7.09173307e-02 1.26238144e-03</_>
    <_>
      2.76782202e-06 7.08562508e-02 1.25729118e-03</_>
    <_>
      2.73135038e-06 7.34624565e-02 1.28274236e-03</_>
    <_>
      2.65054291e-06 7.57021606e-02 1.30819366e-03</_>
    <_>
      2.50198400e-06 7.83847272e-02 1.34382537e-03</_>
    <_>
      2.57372062e-06 8.15457702e-02 1.36418641e-03</_>
    <_>
      2.51684241e-06 8.15457702e-02 1.36927667e-03</_>
    <_>
      2.03153309e-06 1.01026148e-01 1.58815726e-03</_>
    <_>
      1.87203534e-06 1.09633751e-01 1.68487197e-03</_>
    <_>
      1.86779005e-06 1.14876710e-01 1.72559393e-03</_>
    <_>
      1.90638423e-06 1.27882287e-01 1.81212812e-03</_>
    <_>
      2.31934587e-06 1.42649099e-01 1.83757942e-03</_>
    <_>
      2.35246307e-06 1.48207650e-01 1.86812086e-03</_>
    <_>
      2.33386845e-06 1.49388582e-01 1.87830138e-03</_>
    <_>
      2.11255451e-06 1.35222435e-01 1.82230864e-03</_>
    <_>
      2.41434532e-06 1.54539913e-01 1.89866242e-03</_>
    <_>
      2.48452443e-06 1.57777309e-01 1.90884282e-03</_>
    <_>
      1.65728795e-06 1.10315844e-01 1.74086471e-03</_>
    <_>
      1.94686709e-06 1.22654609e-01 1.76631589e-03</_>
    <_>
      1.74740069e-06 1.25505149e-01 1.83248916e-03</_>
    <_>
      2.09243285e-06 1.33934602e-01 1.81721838e-03</_>
    <_>
      1.52306825e-06 9.82621387e-02 1.67978171e-03</_>
    <_>
      1.70926944e-06 1.25530601e-01 1.84266968e-03</_>
    <_>
      1.50528808e-06 9.94227156e-02 1.69505249e-03</_>
    <_>
      1.47094420e-06 1.01743869e-01 1.72559393e-03</_>
    <_>
      1.44063688e-06 1.01168670e-01 1.73068419e-03</_>
    <_>
      1.45435502e-06 1.08391732e-01 1.78667693e-03</_>
    <_>
      1.46249442e-06 1.05042353e-01 1.75613549e-03</_>
    <_>
      1.55234727e-06 1.23448685e-01 1.87321112e-03</_>
    <_>
      1.70384840e-06 9.73255336e-02 1.62378896e-03</_>
    <_>
      1.50822007e-06 1.09949350e-01 1.78158667e-03</_>
    <_>
      1.41395878e-06 1.03077516e-01 1.75613549e-03</_>
    <_>
      1.57778834e-06 1.15874395e-01 1.80703797e-03</_>
    <_>
      1.29048465e-06 1.04085386e-01 1.81212812e-03</_>
    <_>
      1.38010353e-06 1.11313537e-01 1.83757942e-03</_>
    <_>
      1.62819197e-06 1.43621340e-01 1.99537701e-03</_>
    <_>
      1.72169985e-06 1.27378359e-01 1.85285020e-03</_>
    <_>
      1.65565405e-06 1.38281673e-01 1.94956490e-03</_>
    <_>
      1.65767983e-06 1.53196096e-01 2.05136975e-03</_>
    <_>
      1.65224344e-06 1.53700024e-01 2.05646013e-03</_>
    <_>
      1.60831974e-06 1.51582479e-01 2.05646013e-03</_>
    <_>
      1.60917489e-06 1.54641718e-01 2.07682094e-03</_>
    <_>
      1.61357286e-06 1.51088730e-01 2.05136975e-03</_>
    <_>
      1.76328729e-06 1.65107280e-01 2.09718198e-03</_>
    <_>
      1.76767503e-06 1.70971245e-01 2.13281368e-03</_>
    <_>
      1.73493959e-06 1.67805105e-01 2.12263339e-03</_>
    <_>
      1.83314580e-06 1.77303508e-01 2.15317472e-03</_>
    <_>
      1.66532539e-06 1.74819469e-01 2.18880642e-03</_>
    <_>
      1.73421688e-06 1.74269721e-01 2.16335524e-03</_>
    <_>
      1.75027662e-06 1.75883323e-01 2.16844562e-03</_>
    <_>
      1.88154399e-06 1.72742650e-01 2.11245287e-03</_>
    <_>
      1.87092041e-06 1.70635283e-01 2.10227235e-03</_>
    <_>
      1.75959167e-06 1.84714913e-01 2.21934798e-03</_>
    <_>
      1.92084553e-06 1.94243848e-01 2.22952850e-03</_>
    <_>
      2.02944602e-06 1.90029129e-01 2.17862590e-03</_>
    <_>
      2.05252013e-06 1.97247103e-01 2.21425784e-03</_>
    <_>
      2.05567608e-06 2.00107813e-01 2.22952850e-03</_>
    <_>
      1.99041915e-06 1.93755195e-01 2.20916746e-03</_>
    <_>
      2.00764475e-06 2.08160594e-01 2.28552124e-03</_>
    <_>
      1.95778557e-06 2.06791312e-01 2.29061139e-03</_>
    <_>
      1.94945801e-06 2.11011127e-01 2.31606280e-03</_>
    <_>
      1.82839153e-06 2.21425772e-01 2.40768725e-03</_>
    <_>
      1.89332275e-06 2.03691348e-01 2.29061139e-03</_>
    <_>
      1.85518149e-06 2.04485431e-01 2.30588228e-03</_>
    <_>
      1.88979016e-06 2.10817695e-01 2.33133347e-03</_>
    <_>
      1.91075173e-06 2.11881563e-01 2.33133347e-03</_>
    <_>
      1.90503033e-06 2.12517843e-01 2.33642361e-03</_>
    <_>
      1.86690943e-06 2.27391541e-01 2.42804806e-03</_>
    <_>
      1.87459568e-06 2.33591467e-01 2.45858962e-03</_>
    <_>
      1.94408767e-06 2.28720099e-01 2.41277739e-03</_>
    <_>
      1.98282964e-06 2.34640062e-01 2.43313843e-03</_>
    <_>
      2.03303989e-06 2.25441977e-01 2.37205531e-03</_>
    <_>
      2.01854778e-06 2.44454056e-01 2.47386028e-03</_>
    <_>
      2.03021477e-06 2.43049145e-01 2.46367976e-03</_>
    <_>
      1.91066511e-06 2.32721031e-01 2.44331895e-03</_>
    <_>
      1.89977720e-06 2.34054685e-01 2.45349947e-03</_>
    <_>
      1.96440305e-06 2.47564197e-01 2.50440184e-03</_>
    <_>
      2.50876428e-06 1.96687177e-01 2.12772354e-03</_>
    <_>
      2.10838562e-06 2.40870520e-01 2.43313843e-03</_>
    <_>
      2.03894956e-06 2.59862244e-01 2.54512392e-03</_>
    <_>
      2.16447529e-06 2.51687288e-01 2.47386028e-03</_>
    <_>
      2.09013206e-06 2.67879367e-01 2.57057510e-03</_>
    <_>
      2.12093823e-06 2.56853908e-01 2.50949222e-03</_>
    <_>
      2.12812552e-06 2.66688257e-01 2.55530444e-03</_>
    <_>
      2.12212922e-06 2.67441601e-01 2.56039458e-03</_>
    <_>
      2.03325362e-06 2.60590136e-01 2.55021406e-03</_>
    <_>
      2.12093823e-06 2.74873376e-01 2.59602629e-03</_>
    <_>
      2.17543948e-06 2.78813213e-01 2.60111666e-03</_>
    <_>
      2.02484966e-06 2.65344441e-01 2.57566525e-03</_>
    <_>
      2.09188306e-06 2.78691053e-01 2.62147747e-03</_>
    <_>
      1.71986744e-06 2.31646985e-01 2.49931170e-03</_>
    <_>
      1.77470974e-06 2.42957518e-01 2.54003354e-03</_>
    <_>
      1.72876526e-06 2.37948716e-01 2.52985302e-03</_>
    <_>
      1.74678974e-06 2.43028790e-01 2.55021406e-03</_>
    <_>
      2.04154571e-06 2.85562903e-01 2.66728969e-03</_>
    <_>
      1.99537703e-06 2.80599892e-01 2.65710917e-03</_>
    <_>
      1.97653299e-06 2.79434234e-01 2.65710917e-03</_>
    <_>
      2.08176380e-06 2.99026608e-01 2.71819229e-03</_>
    <_>
      2.02544015e-06 2.95560151e-01 2.71819229e-03</_>
    <_>
      1.99643591e-06 2.95921534e-01 2.72837281e-03</_>
    <_>
      1.97881855e-06 3.02523613e-01 2.76400452e-03</_>
    <_>
      1.99183410e-06 3.04513872e-01 2.76909466e-03</_>
    <_>
      2.00485511e-06 3.06504160e-01 2.77418504e-03</_>
    <_>
      2.05692845e-06 3.14465314e-01 2.79454608e-03</_>
    <_>
      2.09598579e-06 3.20436180e-01 2.80981674e-03</_>
    <_>
      2.09598579e-06 3.20436180e-01 2.80981674e-03</_>
    <_>
      2.11122097e-06 3.26076180e-01 2.83017778e-03</_>
    <_>
      9.03302225e-06 1.57391489e-01 1.51226122e-03</_>
    <_>
      1.17575646e-05 1.19938791e-01 1.43228588e-03</_>
    <_>
      6.70183772e-06 2.14733824e-01 1.63343595e-03</_>
    <_>
      3.39289363e-06 1.56836510e-01 1.25052372e-03</_>
    <_>
      1.13705073e-06 9.69495177e-02 1.03967963e-03</_>
    <_>
      1.16228910e-06 1.00463584e-01 1.05422060e-03</_>
    <_>
      1.14535123e-06 9.76571739e-02 1.04210305e-03</_>
    <_>
      1.16716751e-06 1.04346022e-01 1.07360852e-03</_>
    <_>
      1.22016206e-06 1.01205170e-01 1.04937353e-03</_>
    <_>
      1.21174776e-06 1.01907983e-01 1.05422060e-03</_>
    <_>
      1.21174776e-06 1.03318460e-01 1.06149109e-03</_>
    <_>
      1.23664677e-06 1.05441444e-01 1.06876157e-03</_>
    <_>
      1.26625457e-06 1.05758920e-01 1.06633804e-03</_>
    <_>
      1.24384690e-06 1.13443822e-01 1.10753742e-03</_>
    <_>
      3.79487915e-06 4.23341036e-01 2.07693572e-03</_>
    <_>
      1.26588145e-06 1.07196055e-01 1.07360852e-03</_>
    <_>
      1.25755173e-06 1.06490813e-01 1.07118499e-03</_>
    <_>
      1.24922474e-06 1.05785578e-01 1.06876157e-03</_>
    <_>
      1.26625457e-06 1.05758920e-01 1.06633804e-03</_>
    <_>
      1.32574417e-06 1.09200284e-01 1.07603206e-03</_>
    <_>
      1.33418996e-06 1.09895825e-01 1.07845548e-03</_>
    <_>
      1.32495654e-06 1.10661656e-01 1.08330254e-03</_>
    <_>
      1.33797073e-06 1.10976703e-01 1.08330254e-03</_>
    <_>
      1.35381549e-06 1.13855816e-01 1.09541998e-03</_>
    <_>
      1.36796621e-06 1.12677999e-01 1.08814950e-03</_>
    <_>
      1.37571419e-06 1.26302898e-01 1.15116034e-03</_>
    <_>
      1.28723480e-06 1.19744912e-01 1.13177241e-03</_>
    <_>
      1.37527070e-06 1.14863992e-01 1.09784352e-03</_>
    <_>
      1.36688550e-06 1.14163600e-01 1.09541998e-03</_>
    <_>
      1.35284131e-06 1.15348689e-01 1.10269047e-03</_>
    <_>
      1.36796621e-06 1.12677999e-01 1.08814950e-03</_>
    <_>
      6.00893600e-06 1.28086582e-01 1.23113568e-03</_>
    <_>
      9.43003852e-06 9.61958095e-02 1.19720679e-03</_>
    <_>
      1.19048889e-06 9.66974720e-02 1.02998561e-03</_>
    <_>
      1.22022277e-06 9.98092368e-02 1.04210305e-03</_>
    <_>
      1.16173885e-06 1.15273565e-01 1.12934888e-03</_>
    <_>
      1.22016206e-06 1.01205170e-01 1.04937353e-03</_>
    <_>
      1.23271343e-06 1.02957360e-01 1.05664402e-03</_>
    <_>
      1.22022277e-06 9.98092368e-02 1.04210305e-03</_>
    <_>
      1.25851636e-06 1.02223039e-01 1.04937353e-03</_>
    <_>
      1.27190617e-06 1.01147011e-01 1.04210305e-03</_>
    <_>
      1.28505610e-06 1.01469330e-01 1.04210305e-03</_>
    <_>
      1.38122289e-06 1.12978511e-01 1.08814950e-03</_>
    <_>
      1.29768739e-06 1.03197284e-01 1.04937353e-03</_>
    <_>
      1.33592039e-06 1.06992483e-01 1.06391450e-03</_>
    <_>
      1.34251229e-06 1.03754692e-01 1.04695011e-03</_>
    <_>
      1.35304731e-06 1.08364180e-01 1.06876157e-03</_>
    <_>
      1.37619895e-06 1.07894018e-01 1.06391450e-03</_>
    <_>
      1.36643951e-06 1.08664691e-01 1.06876157e-03</_>
    <_>
      1.40492455e-06 1.07021563e-01 1.05664402e-03</_>
    <_>
      1.39481858e-06 1.07797079e-01 1.06149109e-03</_>
    <_>
      1.40492455e-06 1.07021563e-01 1.05664402e-03</_>
    <_>
      1.42402416e-06 1.06910080e-01 1.05422060e-03</_>
    <_>
      1.39240728e-06 1.05300881e-01 1.04937353e-03</_>
    <_>
      1.44686328e-06 1.03919491e-01 1.03725609e-03</_>
    <_>
      1.50674293e-06 1.07414171e-01 1.04937353e-03</_>
    <_>
      1.63195034e-06 1.00371487e-01 1.00575062e-03</_>
    <_>
      1.53615213e-06 9.91064236e-02 1.00575062e-03</_>
    <_>
      1.51468475e-06 1.12062432e-01 1.07118499e-03</_>
    <_>
      1.72088539e-06 9.74778384e-02 9.86362691e-04</_>
    <_>
      1.71792146e-06 9.64938998e-02 9.81515739e-04</_>
    <_>
      2.19168328e-06 1.15940027e-01 1.06149109e-03</_>
    <_>
      1.05997397e-05 1.03887983e-01 1.28929957e-03</_>
    <_>
      9.84087001e-06 9.64502767e-02 1.21417129e-03</_>
    <_>
      5.34594028e-06 9.88786146e-02 1.05664402e-03</_>
    <_>
      4.08872756e-06 1.08633183e-01 1.06149109e-03</_>
    <_>
      8.50801996e-07 1.20282933e-01 1.23113568e-03</_>
    <_>
      8.50801996e-07 1.20282933e-01 1.23113568e-03</_>
    <_>
      8.50348783e-07 1.35376453e-01 1.30626408e-03</_>
    <_>
      8.97822702e-07 1.33772105e-01 1.28202909e-03</_>
    <_>
      8.53518770e-07 1.29155353e-01 1.27475860e-03</_>
    <_>
      9.29648024e-07 1.32831782e-01 1.26748811e-03</_>
    <_>
      8.97590041e-07 1.28251389e-01 1.25537068e-03</_>
    <_>
      9.08011089e-07 1.30427688e-01 1.26264116e-03</_>
    <_>
      9.22050390e-07 1.39525488e-01 1.30141713e-03</_>
    <_>
      9.24425365e-07 1.39166802e-01 1.29899359e-03</_>
    <_>
      1.02701199e-06 1.53814420e-01 1.33534602e-03</_>
    <_>
      1.00822501e-06 1.51000738e-01 1.32807554e-03</_>
    <_>
      1.02241222e-06 1.50760815e-01 1.32322859e-03</_>
    <_>
      1.00501870e-06 1.45889580e-01 1.30626408e-03</_>
    <_>
      1.00766283e-06 1.45506665e-01 1.30384055e-03</_>
    <_>
      1.04695005e-06 1.47227347e-01 1.30141713e-03</_>
    <_>
      1.00058617e-06 1.39210433e-01 1.27718213e-03</_>
    <_>
      1.04710762e-06 1.41803563e-01 1.27718213e-03</_>
    <_>
      1.03768502e-06 1.35982335e-01 1.25294714e-03</_>
    <_>
      1.11590339e-06 1.39840543e-01 1.25294714e-03</_>
    <_>
      1.13841520e-06 1.37075335e-01 1.23598275e-03</_>
    <_>
      1.16500337e-06 1.32308319e-01 1.20932423e-03</_>
    <_>
      1.19333163e-06 1.29167467e-01 1.18993630e-03</_>
    <_>
      1.23074074e-06 1.25241399e-01 1.16570131e-03</_>
    <_>
      1.24681333e-06 1.20593138e-01 1.14146643e-03</_>
    <_>
      1.27552448e-06 1.17878824e-01 1.12450193e-03</_>
    <_>
      1.31443858e-06 1.14388987e-01 1.10269047e-03</_>
    <_>
      1.33334174e-06 1.11362040e-01 1.08572596e-03</_>
    <_>
      1.33974947e-06 1.08058818e-01 1.06876157e-03</_>
    <_>
      1.34065590e-06 1.06614418e-01 1.06149109e-03</_>
    <_>
      1.35507332e-06 1.05480216e-01 1.05422060e-03</_>
    <_>
      1.36980088e-06 1.04346022e-01 1.04695011e-03</_>
    <_>
      1.36596930e-06 1.03301495e-01 1.04210305e-03</_>
    <_>
      1.36321626e-06 1.00856192e-01 1.02998561e-03</_>
    <_>
      1.39126564e-06 1.01423286e-01 1.02998561e-03</_>
    <_>
      1.39260590e-06 1.00022510e-01 1.02271512e-03</_>
    <_>
      1.40307543e-06 9.92760733e-02 1.01786817e-03</_>
    <_>
      1.42995441e-06 9.74099785e-02 1.00575062e-03</_>
    <_>
      1.42995441e-06 9.74099785e-02 1.00575062e-03</_>
    <_>
      1.43545572e-06 9.70367640e-02 1.00332720e-03</_>
    <_>
      1.33040453e-06 1.51092827e-01 1.26506470e-03</_>
    <_>
      9.15819555e-07 1.38582751e-01 1.29899359e-03</_>
    <_>
      9.47254705e-07 1.47048011e-01 1.32807554e-03</_>
    <_>
      9.99379267e-07 1.50450602e-01 1.32807554e-03</_>
    <_>
      1.03953664e-06 1.55690193e-01 1.34019298e-03</_>
    <_>
      1.06808773e-06 1.60794079e-01 1.35473395e-03</_>
    <_>
      1.11417785e-06 1.65149108e-01 1.36200443e-03</_>
    <_>
      1.15465025e-06 1.68491095e-01 1.36685150e-03</_>
    <_>
      1.19576237e-06 1.71760395e-01 1.37169845e-03</_>
    <_>
      1.25895986e-06 1.86609149e-01 1.41774490e-03</_>
    <_>
      1.27552448e-06 1.84185654e-01 1.40562735e-03</_>
    <_>
      1.44490264e-06 1.96739361e-01 1.42743881e-03</_>
    <_>
      1.57326303e-06 2.06166759e-01 1.44682685e-03</_>
    <_>
      1.53209521e-06 1.85542822e-01 1.37654541e-03</_>
    <_>
      1.61806133e-06 1.83761552e-01 1.36200443e-03</_>
    <_>
      1.71113572e-06 1.86342567e-01 1.36442797e-03</_>
    <_>
      1.76322396e-06 1.83955431e-01 1.35231053e-03</_>
    <_>
      2.16007129e-06 1.64545655e-01 1.26506470e-03</_>
    <_>
      2.20807351e-06 1.60968572e-01 1.25052372e-03</_>
    <_>
      2.20807351e-06 1.60968572e-01 1.25052372e-03</_>
    <_>
      2.29349916e-06 1.56235486e-01 1.23113568e-03</_>
    <_>
      2.34776121e-06 1.53862879e-01 1.22144178e-03</_>
    <_>
      2.39464384e-06 1.52069494e-01 1.21417129e-03</_>
    <_>
      2.41395423e-06 1.55738667e-01 1.22871227e-03</_>
    <_>
      2.42349552e-06 1.47855043e-01 1.19720679e-03</_>
    <_>
      2.47315302e-06 1.47241890e-01 1.19478325e-03</_>
    <_>
      2.52448240e-06 1.45409733e-01 1.18751277e-03</_>
    <_>
      2.52489440e-06 1.44224644e-01 1.18266582e-03</_>
    <_>
      2.09488644e-06 1.16676770e-01 1.06633804e-03</_>
    <_>
      2.16234207e-06 1.16385952e-01 1.06391450e-03</_>
    <_>
      2.15072146e-06 1.14764631e-01 1.05664402e-03</_>
    <_>
      2.15892237e-06 1.13216020e-01 1.04937353e-03</_>
    <_>
      2.16839112e-06 1.12721622e-01 1.04695011e-03</_>
    <_>
      2.21090886e-06 1.14931852e-01 1.05664402e-03</_>
    <_>
      2.20997117e-06 1.13877632e-01 1.05179707e-03</_>
    <_>
      2.33845981e-06 1.21562533e-01 1.08572596e-03</_>
    <_>
      2.17902061e-06 1.13274179e-01 1.04937353e-03</_>
    <_>
      2.22064887e-06 1.14427768e-01 1.05422060e-03</_>
    <_>
      2.18965010e-06 1.13826737e-01 1.05179707e-03</_>
    <_>
      2.20027960e-06 1.14379294e-01 1.05422060e-03</_>
    <_>
      1.81235293e-06 9.58734825e-02 9.74245195e-04</_>
    <_>
      1.43718853e-06 9.56650600e-02 9.96056711e-04</_>
    <_>
      1.42066995e-06 9.67774466e-02 1.00332720e-03</_>
    <_>
      1.39782139e-06 9.96492878e-02 1.02029159e-03</_>
    <_>
      1.37719007e-06 1.01142161e-01 1.02998561e-03</_>
    <_>
      1.34638742e-06 1.04804061e-01 1.05179707e-03</_>
    <_>
      1.30885724e-06 1.07809201e-01 1.07118499e-03</_>
    <_>
      1.28205340e-06 1.10063046e-01 1.08572596e-03</_>
    <_>
      1.23187738e-06 1.11609235e-01 1.10026693e-03</_>
    <_>
      1.19590777e-06 1.11980036e-01 1.10753742e-03</_>
    <_>
      1.18859373e-06 1.17190547e-01 1.13419595e-03</_>
    <_>
      1.15582077e-06 1.22083589e-01 1.16327789e-03</_>
    <_>
      1.30217563e-06 1.46136776e-01 1.24810019e-03</_>
    <_>
      2.59025614e-06 1.23099029e-01 1.09299645e-03</_>
    <_>
      2.44465286e-06 1.28200486e-01 1.11480791e-03</_>
    <_>
      1.52156986e-06 1.88528568e-01 1.38866296e-03</_>
    <_>
      1.45545198e-06 1.86536446e-01 1.38866296e-03</_>
    <_>
      1.35080063e-06 1.80947870e-01 1.38139247e-03</_>
    <_>
      1.46296486e-06 1.57391489e-01 1.27475860e-03</_>
    <_>
      1.58715204e-06 1.03204556e-01 1.02271512e-03</_>
    <_>
      5.09770189e-06 1.07179090e-01 1.09057303e-03</_>
    <_>
      4.93292828e-06 9.80715901e-02 1.03725609e-03</_>
    <_>
      1.12096609e-06 1.05649866e-01 1.08814950e-03</_>
    <_>
      4.00223325e-06 1.22568287e-01 1.12450193e-03</_>
    <_>
      2.42349552e-06 2.23969758e-01 1.47348526e-03</_>
    <_>
      2.39989072e-06 2.27663174e-01 1.48560270e-03</_>
    <_>
      1.39272231e-06 1.32119283e-01 1.17539533e-03</_>
    <_>
      9.25746178e-07 9.59849656e-02 1.07845548e-03</_>
    <_>
      9.51277684e-07 9.80207026e-02 1.08330254e-03</_>
    <_>
      9.95227879e-07 1.01275451e-01 1.09057303e-03</_>
    <_>
      1.06172126e-06 1.05349347e-01 1.09784352e-03</_>
    <_>
      1.07207688e-06 1.10467769e-01 1.12207839e-03</_>
    <_>
      1.15116040e-06 1.17878824e-01 1.14388985e-03</_>
    <_>
      1.22336110e-06 1.19851544e-01 1.14146643e-03</_>
    <_>
      1.21946653e-06 1.20234460e-01 1.14388985e-03</_>
    <_>
      1.33624280e-06 1.13933370e-01 1.09784352e-03</_>
    <_>
      1.42707540e-06 1.17546804e-01 1.10511400e-03</_>
    <_>
      1.55241605e-06 1.22580402e-01 1.11723144e-03</_>
    <_>
      1.59532158e-06 1.23292908e-01 1.11723144e-03</_>
    <_>
      1.59575313e-06 1.28707007e-01 1.14146643e-03</_>
    <_>
      1.62141305e-06 1.28028423e-01 1.13661936e-03</_>
    <_>
      1.71550766e-06 1.22296855e-01 1.10511400e-03</_>
    <_>
      1.76254287e-06 1.22842140e-01 1.10511400e-03</_>
    <_>
      1.79208769e-06 1.22078739e-01 1.10026693e-03</_>
    <_>
      1.84779901e-06 1.25873938e-01 1.11480791e-03</_>
    <_>
      1.92340963e-06 1.22144178e-01 1.09541998e-03</_>
    <_>
      1.94658310e-06 1.20690078e-01 1.08814950e-03</_>
    <_>
      2.01459375e-06 1.18959703e-01 1.07845548e-03</_>
    <_>
      2.06709865e-06 1.17088765e-01 1.06876157e-03</_>
    <_>
      2.10243320e-06 1.15120880e-01 1.05906755e-03</_>
    <_>
      2.12185773e-06 1.15193591e-01 1.05906755e-03</_>
    <_>
      2.18758032e-06 1.11732841e-01 1.04210305e-03</_>
    <_>
      2.23707298e-06 1.09260872e-01 1.02998561e-03</_>
    <_>
      2.26714133e-06 1.06757402e-01 1.01786817e-03</_>
    <_>
      2.25441545e-06 1.04210310e-01 1.00575062e-03</_>
    <_>
      2.27558235e-06 1.03240907e-01 1.00090366e-03</_>
    <_>
      2.29655052e-06 1.01277880e-01 9.91209643e-04</_>
    <_>
      2.25038752e-06 9.92421433e-02 9.81515739e-04</_>
    <_>
      2.27346891e-06 1.00260012e-01 9.86362691e-04</_>
    <_>
      2.22636845e-06 9.72500294e-02 9.71821719e-04</_>
    <_>
      2.25879239e-06 9.58540961e-02 9.64551233e-04</_>
    <_>
      2.25879239e-06 9.58540961e-02 9.64551233e-04</_>
    <_>
      1.85201588e-06 9.71215814e-02 9.79092205e-04</_>
    <_>
      1.80208701e-06 9.86750424e-02 9.88786225e-04</_>
    <_>
      1.83085149e-06 9.60116237e-02 9.74245195e-04</_>
    <_>
      1.76161700e-06 9.97850075e-02 9.96056711e-04</_>
    <_>
      1.70139310e-06 1.02126099e-01 1.01059768e-03</_>
    <_>
      1.69742839e-06 1.03558384e-01 1.01786817e-03</_>
    <_>
      1.62202377e-06 1.04646534e-01 1.02756207e-03</_>
    <_>
      1.57479951e-06 1.04014002e-01 1.02756207e-03</_>
    <_>
      1.49849814e-06 1.02862842e-01 1.02756207e-03</_>
    <_>
      1.44873172e-06 1.06396303e-01 1.04937353e-03</_>
    <_>
      1.39614428e-06 1.06352679e-01 1.05422060e-03</_>
    <_>
      1.31804234e-06 1.07057914e-01 1.06633804e-03</_>
    <_>
      1.27906765e-06 1.06090941e-01 1.06633804e-03</_>
    <_>
      1.24050007e-06 1.07954606e-01 1.08087901e-03</_>
    <_>
      9.90087642e-07 1.06517471e-01 1.11965497e-03</_>
    <_>
      8.31523153e-07 9.66902003e-02 1.10996095e-03</_>
    <_>
      1.04364437e-06 1.24940887e-01 1.19963032e-03</_>
    <_>
      1.02666786e-06 1.23620085e-01 1.19720679e-03</_>
    <_>
      1.00806267e-06 1.24194451e-01 1.20447727e-03</_>
    <_>
      9.91430170e-07 1.22842140e-01 1.20205374e-03</_>
    <_>
      9.54295047e-07 1.18913658e-01 1.19235984e-03</_>
    <_>
      9.50119272e-07 1.17723718e-01 1.18751277e-03</_>
    <_>
      9.51597599e-07 1.19250521e-01 1.19478325e-03</_>
    <_>
      9.58444048e-07 1.20108441e-01 1.19720679e-03</_>
    <_>
      9.22581080e-07 1.14311434e-01 1.17781886e-03</_>
    <_>
      9.08810819e-07 1.12605296e-01 1.17297180e-03</_>
    <_>
      9.57004431e-07 1.18576787e-01 1.18993630e-03</_>
    <_>
      1.00571674e-06 1.21097222e-01 1.18993630e-03</_>
    <_>
      1.05983816e-06 1.24688841e-01 1.19478325e-03</_>
    <_>
      1.08026825e-06 1.25614613e-01 1.19478325e-03</_>
    <_>
      1.08344545e-06 1.25246242e-01 1.19235984e-03</_>
    <_>
      1.14988563e-06 1.27509788e-01 1.18993630e-03</_>
    <_>
      1.21174776e-06 1.33563682e-01 1.20690081e-03</_>
    <_>
      1.31095601e-06 1.53334558e-01 1.27718213e-03</_>
    <_>
      1.37179063e-06 1.38720885e-01 1.20690081e-03</_>
    <_>
      1.40144698e-06 1.37298286e-01 1.19720679e-03</_>
    <_>
      1.49617642e-06 1.44711763e-01 1.21901825e-03</_>
    <_>
      1.47448861e-06 1.40785694e-01 1.20447727e-03</_>
    <_>
      1.53146016e-06 1.44338548e-01 1.21417129e-03</_>
    <_>
      1.52618895e-06 1.52399093e-01 1.24810019e-03</_>
    <_>
      1.71417958e-06 1.41195267e-01 1.18751277e-03</_>
    <_>
      1.72375485e-06 1.39031097e-01 1.17781886e-03</_>
    <_>
      1.70142710e-06 1.45070449e-01 1.20447727e-03</_>
    <_>
      1.89900743e-06 1.36394322e-01 1.15843082e-03</_>
    <_>
      2.00695717e-06 1.31527945e-01 1.13419595e-03</_>
    <_>
      2.04843036e-06 1.30083546e-01 1.12692546e-03</_>
    <_>
      2.13779936e-06 1.29371032e-01 1.12207839e-03</_>
    <_>
      2.14538977e-06 1.27727911e-01 1.11480791e-03</_>
    <_>
      2.20226434e-06 1.27909675e-01 1.11480791e-03</_>
    <_>
      2.25849180e-06 1.24725200e-01 1.10026693e-03</_>
    <_>
      2.33883316e-06 1.22650683e-01 1.09057303e-03</_>
    <_>
      2.30708292e-06 1.20985746e-01 1.08330254e-03</_>
    <_>
      2.36940082e-06 1.18886992e-01 1.07360852e-03</_>
    <_>
      2.39044880e-06 1.15697674e-01 1.05906755e-03</_>
    <_>
      2.42349552e-06 1.15174204e-01 1.05664402e-03</_>
    <_>
      2.45715796e-06 1.14641033e-01 1.05422060e-03</_>
    <_>
      2.44603393e-06 1.13068186e-01 1.04695011e-03</_>
    <_>
      2.53727853e-06 1.15113616e-01 1.05664402e-03</_>
    <_>
      2.53781195e-06 1.14059396e-01 1.05179707e-03</_>
    <_>
      2.45778801e-06 1.10462926e-01 1.03483256e-03</_>
    <_>
      2.57496390e-06 1.11403242e-01 1.03967963e-03</_>
    <_>
      2.48093238e-06 1.10453233e-01 1.03483256e-03</_>
    <_>
      2.50504627e-06 1.08378716e-01 1.02513866e-03</_>
    <_>
      2.49341338e-06 1.07874632e-01 1.02271512e-03</_>
    <_>
      2.51716369e-06 1.07857667e-01 1.02271512e-03</_>
    <_>
      2.45812726e-06 1.08402953e-01 1.02513866e-03</_>
    <_>
      2.52988707e-06 1.06318749e-01 1.01544464e-03</_>
    <_>
      2.49341338e-06 1.07874632e-01 1.02271512e-03</_>
    <_>
      2.49241975e-06 1.10964589e-01 1.03725609e-03</_>
    <_>
      2.45747287e-06 1.12542287e-01 1.04452658e-03</_>
    <_>
      2.46857257e-06 1.14110284e-01 1.05179707e-03</_>
    <_>
      2.43461955e-06 1.15702525e-01 1.05906755e-03</_>
    <_>
      2.37943163e-06 1.15164503e-01 1.05664402e-03</_>
    <_>
      2.32524462e-06 1.14597410e-01 1.05422060e-03</_>
    <_>
      2.38002531e-06 1.18356250e-01 1.07118499e-03</_>
    <_>
      2.35915422e-06 1.20496199e-01 1.08087901e-03</_>
    <_>
      2.28943009e-06 1.26433760e-01 1.10753742e-03</_>
    <_>
      2.25988288e-06 1.26935422e-01 1.10996095e-03</_>
    <_>
      2.17619959e-06 1.30626410e-01 1.12692546e-03</_>
    <_>
      2.14010402e-06 1.31624892e-01 1.13177241e-03</_>
    <_>
      2.11575025e-06 1.34358585e-01 1.14388985e-03</_>
    <_>
      2.04482444e-06 1.34009615e-01 1.14388985e-03</_>
    <_>
      1.84322107e-06 1.48666903e-01 1.21174776e-03</_>
    <_>
      1.76627748e-06 1.53710201e-01 1.23598275e-03</_>
    <_>
      1.72870602e-06 1.48407593e-01 1.21659471e-03</_>
    <_>
      1.67530186e-06 1.48773536e-01 1.22144178e-03</_>
    <_>
      1.57410398e-06 1.52248830e-01 1.24325324e-03</_>
    <_>
      1.60796992e-06 1.59550831e-01 1.26991165e-03</_>
    <_>
      1.42866509e-06 1.49975598e-01 1.24810019e-03</_>
    <_>
      1.37137863e-06 1.52985573e-01 1.26748811e-03</_>
    <_>
      1.30058572e-06 1.51233390e-01 1.26991165e-03</_>
    <_>
      1.22559561e-06 1.50135547e-01 1.27718213e-03</_>
    <_>
      1.14405225e-06 1.46626323e-01 1.27718213e-03</_>
    <_>
      1.13557974e-06 1.39108643e-01 1.24567666e-03</_>
    <_>
      1.37619895e-06 1.07894018e-01 1.06391450e-03</_>
    <_>
      1.47107141e-06 9.71627831e-02 1.00090366e-03</_>
    <_>
      9.60664011e-07 1.06527172e-01 1.12692546e-03</_>
    <_>
      9.59146860e-07 1.05085187e-01 1.11965497e-03</_>
    <_>
      9.67919959e-07 1.04132757e-01 1.11238449e-03</_>
    <_>
      9.87349040e-07 1.03648059e-01 1.10511400e-03</_>
    <_>
      9.84545068e-07 1.00817412e-01 1.09057303e-03</_>
    <_>
      9.77092782e-07 9.69519392e-02 1.07118499e-03</_>
    <_>
      1.56073111e-06 9.75456908e-02 9.96056711e-04</_>
    <_>
      9.43728537e-07 9.72427577e-02 1.08087901e-03</_>
    <_>
      9.07894730e-07 9.94699523e-02 1.10269047e-03</_>
    <_>
      8.87171382e-07 1.00158222e-01 1.11238449e-03</_>
    <_>
      8.90990862e-07 1.02998562e-01 1.12692546e-03</_>
    <_>
      8.90263834e-07 1.04738630e-01 1.13661936e-03</_>
    <_>
      9.05328250e-07 1.09638937e-01 1.15843082e-03</_>
    <_>
      9.23567484e-07 1.12491392e-01 1.16812484e-03</_>
    <_>
      9.29466239e-07 1.15164503e-01 1.18024228e-03</_>
    <_>
      9.32636226e-07 1.18198723e-01 1.19478325e-03</_>
    <_>
      8.82506185e-07 1.12474427e-01 1.18024228e-03</_>
    <_>
      8.80039067e-07 1.12789482e-01 1.18266582e-03</_>
    <_>
      1.19522440e-06 2.31395349e-01 1.59223657e-03</_>
    <_>
      1.28066233e-06 2.28065476e-01 1.56315463e-03</_>
    <_>
      1.30013507e-06 2.34836712e-01 1.58254255e-03</_>
    <_>
      1.31415004e-06 2.38486499e-01 1.59223657e-03</_>
    <_>
      1.31983813e-06 2.39518911e-01 1.59466011e-03</_>
    <_>
      1.35994696e-06 2.36479849e-01 1.57769560e-03</_>
    <_>
      1.35600385e-06 2.39199013e-01 1.58738962e-03</_>
    <_>
      1.35023345e-06 2.38181144e-01 1.58496608e-03</_>
    <_>
      1.30969579e-06 2.45553419e-01 1.61647156e-03</_>
    <_>
      1.34383311e-06 2.39315331e-01 1.58981304e-03</_>
    <_>
      1.33492688e-06 2.38857299e-01 1.58981304e-03</_>
    <_>
      1.31724005e-06 2.37926677e-01 1.58981304e-03</_>
    <_>
      1.31107220e-06 2.39046320e-01 1.59466011e-03</_>
    <_>
      1.36138169e-06 2.32209653e-01 1.56315463e-03</_>
    <_>
      1.36725134e-06 2.33210549e-01 1.56557816e-03</_>
    <_>
      1.40399641e-06 2.42969960e-01 1.59223657e-03</_>
    <_>
      1.44353567e-06 2.46222302e-01 1.59708352e-03</_>
    <_>
      1.45409740e-06 2.56502777e-01 1.62858900e-03</_>
    <_>
      1.48329548e-06 2.55460650e-01 1.62131852e-03</_>
    <_>
      1.51029337e-06 2.58858413e-01 1.62858900e-03</_>
    <_>
      1.52760674e-06 2.72042215e-01 1.66736497e-03</_>
    <_>
      1.54850454e-06 2.74458438e-01 1.67221192e-03</_>
    <_>
      1.54642044e-06 2.72788644e-01 1.66736497e-03</_>
    <_>
      1.52039934e-06 2.73331523e-01 1.67221192e-03</_>
    <_>
      1.55337329e-06 2.67529666e-01 1.65040046e-03</_>
    <_>
      1.52333894e-06 2.68717170e-01 1.65767095e-03</_>
    <_>
      1.54115412e-06 2.61601806e-01 1.63343595e-03</_>
    <_>
      1.60056368e-06 1.64923713e-01 1.29172311e-03</_>
    <_>
      1.55851853e-06 1.50741428e-01 1.23840617e-03</_>
    <_>
      1.58614148e-06 1.43706009e-01 1.20690081e-03</_>
    <_>
      1.53783151e-06 1.39329180e-01 1.19235984e-03</_>
    <_>
      1.54903773e-06 1.31174117e-01 1.15600741e-03</_>
    <_>
      1.44235798e-06 1.20467111e-01 1.11723144e-03</_>
    <_>
      1.58903265e-06 1.18428953e-01 1.09541998e-03</_>
    <_>
      1.60024626e-06 1.09847359e-01 1.05422060e-03</_>
    <_>
      1.69742839e-06 1.03558384e-01 1.01786817e-03</_>
    <_>
      1.74693560e-06 1.00623533e-01 1.00090366e-03</_>
    <_>
      1.83851455e-06 9.89561677e-02 9.88786225e-04</_>
    <_>
      1.90648393e-06 9.65157077e-02 9.74245195e-04</_>
    <_>
      1.97591226e-06 9.73808989e-02 9.76668671e-04</_>
    <_>
      2.59660578e-06 9.97510776e-02 9.83939157e-04</_>
    <_>
      2.68857752e-06 9.91112739e-02 9.81515739e-04</_>
    <_>
      1.05797210e-06 1.64235443e-01 1.37169845e-03</_>
    <_>
      1.08872871e-06 1.69009730e-01 1.38381589e-03</_>
    <_>
      1.09487951e-06 1.69964582e-01 1.38623943e-03</_>
    <_>
      1.12278360e-06 1.75182372e-01 1.40078040e-03</_>
    <_>
      1.10269048e-06 1.76430479e-01 1.41047442e-03</_>
    <_>
      1.10976953e-06 1.81132048e-01 1.42743881e-03</_>
    <_>
      1.10805365e-06 1.85356215e-01 1.44440331e-03</_>
    <_>
      1.18714445e-06 1.84287444e-01 1.42259186e-03</_>
    <_>
      1.19944616e-06 1.86197162e-01 1.42743881e-03</_>
    <_>
      1.22404936e-06 1.90016583e-01 1.43713283e-03</_>
    <_>
      1.29786190e-06 2.01474875e-01 1.46621477e-03</_>
    <_>
      1.26710768e-06 1.96700588e-01 1.45409734e-03</_>
    <_>
      1.30401259e-06 2.02429727e-01 1.46863831e-03</_>
    <_>
      1.28691738e-06 2.09007099e-01 1.49529672e-03</_>
    <_>
      1.35322182e-06 2.10068598e-01 1.48802623e-03</_>
    <_>
      1.39012673e-06 2.15797737e-01 1.50256720e-03</_>
    <_>
      1.45409740e-06 2.21168205e-01 1.51226122e-03</_>
    <_>
      1.52099551e-06 2.24279970e-01 1.51468464e-03</_>
    <_>
      1.56926183e-06 2.30193302e-01 1.52922561e-03</_>
    <_>
      1.53385702e-06 2.39320189e-01 1.56315463e-03</_>
    <_>
      2.02089473e-06 1.90467358e-01 1.36442797e-03</_>
    <_>
      2.11549354e-06 1.89127162e-01 1.35715748e-03</_>
    <_>
      2.15330965e-06 1.88664272e-01 1.35473395e-03</_>
    <_>
      2.23964435e-06 1.88354075e-01 1.35231053e-03</_>
    <_>
      1.52212488e-06 1.23634622e-01 1.12450193e-03</_>
    <_>
      1.54617317e-06 1.20355636e-01 1.10753742e-03</_>
    <_>
      1.62708159e-06 1.30311355e-01 1.14631339e-03</_>
    <_>
      2.43236536e-06 1.81282312e-01 1.32565200e-03</_>
    <_>
      1.75181401e-06 1.24885149e-01 1.11480791e-03</_>
    <_>
      1.76336448e-06 1.26651883e-01 1.12207839e-03</_>
    <_>
      1.81528299e-06 1.21770956e-01 1.09784352e-03</_>
    <_>
      2.09348809e-06 1.15612857e-01 1.06149109e-03</_>
    <_>
      1.92636867e-06 1.05480216e-01 1.01786817e-03</_>
    <_>
      1.96386736e-06 1.05703183e-01 1.01786817e-03</_>
    <_>
      2.01075954e-06 1.05446286e-01 1.01544464e-03</_>
    <_>
      2.09301811e-06 1.01302110e-01 9.93633177e-04</_>
    <_>
      2.17435058e-06 9.95765850e-02 9.83939157e-04</_>
    <_>
      5.13509622e-06 1.05007634e-01 1.08087901e-03</_>
    <_>
      1.02632612e-05 2.27854624e-01 1.89032650e-03</_>
    <_>
      2.25484928e-06 3.39454174e-01 1.81519811e-03</_>
    <_>
      2.66935899e-06 3.17720264e-01 1.75703422e-03</_>
    <_>
      5.08097946e-06 1.06827684e-01 1.08814950e-03</_>
    <_>
      4.77920594e-06 9.77298766e-02 1.02998561e-03</_>
    <_>
      1.84808505e-06 2.36857906e-01 1.52922561e-03</_>
    <_>
      1.05932679e-06 1.07123345e-01 1.10753742e-03</_>
    <_>
      1.62700883e-06 2.06200689e-01 1.44197978e-03</_>
    <_>
      3.66720928e-06 6.37687087e-01 2.53982330e-03</_>
    <_>
      1.06983032e-06 1.18632533e-01 1.16327789e-03</_>
    <_>
      1.26259022e-06 1.03274837e-01 1.05422060e-03</_>
    <_>
      2.31877630e-06 2.43415892e-01 1.53649610e-03</_>
    <_>
      5.42145654e-06 9.88059118e-02 1.05906755e-03</_>
    <_>
      1.00036073e-06 1.65708929e-01 1.39350991e-03</_>
    <_>
      1.00979059e-06 1.68093652e-01 1.40078040e-03</_>
    <_>
      9.93335107e-07 1.62931606e-01 1.38381589e-03</_>
    <_>
      1.00427712e-06 1.63103670e-01 1.38139247e-03</_>
    <_>
      1.01180933e-06 1.61889493e-01 1.37412199e-03</_>
    <_>
      1.03863988e-06 1.65352672e-01 1.38139247e-03</_>
    <_>
      1.05875006e-06 1.66028827e-01 1.37896894e-03</_>
    <_>
      1.07228766e-06 1.63932502e-01 1.36685150e-03</_>
    <_>
      1.08057850e-06 1.62674710e-01 1.35958102e-03</_>
    <_>
      1.10158771e-06 1.63283005e-01 1.35715748e-03</_>
    <_>
      1.10389487e-06 1.61084905e-01 1.34746346e-03</_>
    <_>
      1.11263398e-06 1.59819841e-01 1.34019298e-03</_>
    <_>
      1.12151133e-06 1.58554778e-01 1.33292249e-03</_>
    <_>
      1.13398744e-06 1.58617780e-01 1.33049907e-03</_>
    <_>
      1.14315799e-06 1.57345444e-01 1.32322859e-03</_>
    <_>
      1.14935483e-06 1.56497225e-01 1.31838152e-03</_>
    <_>
      1.15877492e-06 1.55224890e-01 1.31111103e-03</_>
    <_>
      1.19166418e-06 1.56160355e-01 1.30868761e-03</_>
    <_>
      1.20837183e-06 1.55736253e-01 1.30384055e-03</_>
    <_>
      1.22198708e-06 1.54001027e-01 1.29414664e-03</_>
    <_>
      1.24617350e-06 1.54405743e-01 1.29172311e-03</_>
    <_>
      1.27478768e-06 1.52612358e-01 1.27960567e-03</_>
    <_>
      1.30769149e-06 1.52059808e-01 1.27233518e-03</_>
    <_>
      1.33111462e-06 1.49384260e-01 1.25779421e-03</_>
    <_>
      1.35044195e-06 1.48851097e-01 1.25294714e-03</_>
    <_>
      1.83748705e-06 1.09396584e-01 1.03967963e-03</_>
    <_>
      1.85801400e-06 1.07021563e-01 1.02756207e-03</_>
    <_>
      1.91163645e-06 1.02891922e-01 1.00575062e-03</_>
    <_>
      1.95374218e-06 1.00674428e-01 9.93633177e-04</_>
    <_>
      1.93663232e-06 9.71724764e-02 9.76668671e-04</_>
    <_>
      1.12539374e-06 2.12952554e-01 1.54376659e-03</_>
    <_>
      1.12912835e-06 2.18599290e-01 1.56315463e-03</_>
    <_>
      1.12107273e-06 2.18027353e-01 1.56315463e-03</_>
    <_>
      1.11008217e-06 2.15889826e-01 1.55830767e-03</_>
    <_>
      1.12578880e-06 2.14990705e-01 1.55103719e-03</_>
    <_>
      1.11939801e-06 2.09874704e-01 1.53407268e-03</_>
    <_>
      1.09902612e-06 2.03210101e-01 1.51468464e-03</_>
    <_>
      1.10934536e-06 2.01319769e-01 1.50499074e-03</_>
    <_>
      1.13403348e-06 2.00997442e-01 1.49772025e-03</_>
    <_>
      1.15626915e-06 1.99138626e-01 1.48560270e-03</_>
    <_>
      1.19401500e-06 2.00713903e-01 1.48317928e-03</_>
    <_>
      1.22368601e-06 2.01707527e-01 1.48075575e-03</_>
    <_>
      1.25730219e-06 2.00163767e-01 1.46863831e-03</_>
    <_>
      1.27616909e-06 1.99114397e-01 1.46136782e-03</_>
    <_>
      1.29830039e-06 1.99502155e-01 1.45894429e-03</_>
    <_>
      1.30831438e-06 1.97975352e-01 1.45167380e-03</_>
    <_>
      1.33731635e-06 1.99254960e-01 1.45167380e-03</_>
    <_>
      1.37310406e-06 2.01419130e-01 1.45409734e-03</_>
    <_>
      1.39939414e-06 2.03137398e-01 1.45652075e-03</_>
    <_>
      1.44514502e-06 2.07582086e-01 1.46621477e-03</_>
    <_>
      1.46702178e-06 2.06300050e-01 1.45894429e-03</_>
    <_>
      1.50491314e-06 2.08255813e-01 1.46136782e-03</_>
    <_>
      1.53509768e-06 2.11292461e-01 1.46863831e-03</_>
    <_>
      1.56931264e-06 2.10218847e-01 1.46136782e-03</_>
    <_>
      1.60004254e-06 2.09675983e-01 1.45652075e-03</_>
    <_>
      1.61114951e-06 2.06491515e-01 1.44440331e-03</_>
    <_>
      1.64770313e-06 2.05318540e-01 1.43713283e-03</_>
    <_>
      1.67567509e-06 2.05270067e-01 1.43470929e-03</_>
    <_>
      1.66441305e-06 2.01566964e-01 1.42259186e-03</_>
    <_>
      1.69080977e-06 2.00083792e-01 1.41532137e-03</_>
    <_>
      1.70145131e-06 1.95532471e-01 1.39835686e-03</_>
    <_>
      1.71664192e-06 1.93802088e-01 1.39108638e-03</_>
    <_>
      1.71542536e-06 1.89081118e-01 1.37412199e-03</_>
    <_>
      1.71633656e-06 1.85777903e-01 1.36200443e-03</_>
    <_>
      1.72038381e-06 1.80598885e-01 1.34261651e-03</_>
    <_>
      1.72354146e-06 1.78703710e-01 1.33534602e-03</_>
    <_>
      1.71695945e-06 1.74719483e-01 1.32080505e-03</_>
    <_>
      1.72014632e-06 1.72855824e-01 1.31353457e-03</_>
    <_>
      1.70798751e-06 1.69475049e-01 1.30141713e-03</_>
    <_>
      1.73893557e-06 1.64962485e-01 1.28202909e-03</_>
    <_>
      1.74587410e-06 1.61346644e-01 1.26748811e-03</_>
    <_>
      1.75522143e-06 1.59024924e-01 1.25779421e-03</_>
    <_>
      2.50390713e-06 1.11475945e-01 1.03967963e-03</_>
    <_>
      2.48202286e-06 1.06352679e-01 1.01544464e-03</_>
    <_>
      2.50664561e-06 1.04316942e-01 1.00575062e-03</_>
    <_>
      2.54527640e-06 1.00795604e-01 9.88786225e-04</_>
    <_>
      2.49731511e-06 9.69180092e-02 9.69398185e-04</_>
    <_>
      1.09389805e-06 1.75899729e-01 1.41047442e-03</_>
    <_>
      1.11202826e-06 1.78815186e-01 1.41774490e-03</_>
    <_>
      1.16037700e-06 1.86589763e-01 1.43713283e-03</_>
    <_>
      1.19059553e-06 1.91448882e-01 1.44925027e-03</_>
    <_>
      1.22081417e-06 1.96307987e-01 1.46136782e-03</_>
    <_>
      1.25103020e-06 2.01167092e-01 1.47348526e-03</_>
    <_>
      1.27520696e-06 2.05054373e-01 1.48317928e-03</_>
    <_>
      1.33476681e-06 2.07204014e-01 1.48075575e-03</_>
    <_>
      1.38485564e-06 2.12802291e-01 1.49287318e-03</_>
    <_>
      1.41162309e-06 2.12511480e-01 1.48802623e-03</_>
    <_>
      1.45788522e-06 2.14973748e-01 1.49044977e-03</_>
    <_>
      1.47434559e-06 2.16270313e-01 1.49287318e-03</_>
    <_>
      1.85280112e-06 1.78054214e-01 1.32565200e-03</_>
    <_>
      1.89734260e-06 1.75344750e-01 1.31353457e-03</_>
    <_>
      1.96303131e-06 1.76672816e-01 1.31595810e-03</_>
    <_>
      1.98808789e-06 1.73013344e-01 1.30141713e-03</_>
    <_>
      1.60970262e-06 1.18218109e-01 1.09299645e-03</_>
    <_>
      1.68349573e-06 1.15561962e-01 1.07603206e-03</_>
    <_>
      1.86728391e-06 1.11170590e-01 1.04695011e-03</_>
    <_>
      1.97165650e-06 1.09813429e-01 1.03725609e-03</_>
    <_>
      1.92687753e-06 1.14718586e-01 1.06149109e-03</_>
    <_>
      2.06937671e-06 9.92494151e-02 9.83939157e-04</_>
    <_>
      2.07567791e-06 9.68428776e-02 9.71821719e-04</_>
    <_>
      2.18567538e-06 1.00095212e-01 9.86362691e-04</_>
    <_>
      2.10036342e-06 1.06330864e-01 1.01786817e-03</_>
    <_>
      2.15042564e-06 9.75626558e-02 9.74245195e-04</_>
    <_>
      1.86348382e-06 1.17401391e-01 1.07603206e-03</_>
    <_>
      1.92890366e-06 1.15782499e-01 1.06633804e-03</_>
    <_>
      2.41178759e-06 1.03342697e-01 1.00090366e-03</_>
    <_>
      2.43520094e-06 1.04346022e-01 1.00575062e-03</_>
    <_>
      2.48202286e-06 1.06352679e-01 1.01544464e-03</_>
    <_>
      2.68314875e-06 1.03076108e-01 1.00090366e-03</_>
    <_>
      2.67204928e-06 1.01605050e-01 9.93633177e-04</_>
    <_>
      2.67204928e-06 1.01605050e-01 9.93633177e-04</_>
    <_>
      2.64493019e-06 1.02647156e-01 9.98480129e-04</_>
    <_>
      1.02241222e-06 1.04695007e-01 1.10269047e-03</_>
    <_>
      9.97052666e-07 1.10562287e-01 1.13904290e-03</_>
    <_>
      1.06510197e-06 1.05014905e-01 1.09541998e-03</_>
    <_>
      1.09173379e-06 1.06956124e-01 1.10026693e-03</_>
    <_>
      1.12270618e-06 1.09990343e-01 1.10996095e-03</_>
    <_>
      1.09448206e-06 1.05179705e-01 1.09057303e-03</_>
    <_>
      1.13096542e-06 1.01786815e-01 1.06633804e-03</_>
    <_>
      1.18279911e-06 1.01542041e-01 1.05664402e-03</_>
    <_>
      1.32038826e-06 1.11044563e-01 1.08572596e-03</_>
    <_>
      1.40529050e-06 1.16560437e-01 1.10269047e-03</_>
    <_>
      1.49006439e-06 1.19337767e-01 1.10753742e-03</_>
    <_>
      1.44559317e-06 1.17418356e-01 1.10269047e-03</_>
    <_>
      1.48199410e-06 1.14534400e-01 1.08572596e-03</_>
    <_>
      1.51578740e-06 1.14631340e-01 1.08330254e-03</_>
    <_>
      1.54464647e-06 1.15120880e-01 1.08330254e-03</_>
    <_>
      1.63084781e-06 1.15392312e-01 1.07845548e-03</_>
    <_>
      1.64614721e-06 1.15600735e-01 1.07845548e-03</_>
    <_>
      1.68712609e-06 1.14049695e-01 1.06876157e-03</_>
    <_>
      1.74606066e-06 1.12648919e-01 1.05906755e-03</_>
    <_>
      1.78112373e-06 1.10431418e-01 1.04695011e-03</_>
    <_>
      1.83240002e-06 1.10889457e-01 1.04695011e-03</_>
    <_>
      1.92423363e-06 1.04464777e-01 1.01302110e-03</_>
    <_>
      1.95580446e-06 1.01670481e-01 9.98480129e-04</_>
    <_>
      2.08689858e-06 9.73663554e-02 9.74245195e-04</_>
    <_>
      6.75782019e-07 1.16948202e-01 1.28929957e-03</_>
    <_>
      8.05899560e-07 1.40809938e-01 1.34988700e-03</_>
    <_>
      7.83717269e-07 1.26651883e-01 1.28929957e-03</_>
    <_>
      7.86623048e-07 1.38100475e-01 1.34504004e-03</_>
    <_>
      7.35807134e-07 1.26724586e-01 1.31111103e-03</_>
    <_>
      7.11051200e-07 1.18945159e-01 1.28202909e-03</_>
    <_>
      7.71660382e-07 1.24703385e-01 1.28445262e-03</_>
    <_>
      7.42881355e-07 1.17675245e-01 1.26021763e-03</_>
    <_>
      7.78131096e-07 1.29530981e-01 1.30626408e-03</_>
    <_>
      7.91593607e-07 1.25391662e-01 1.27960567e-03</_>
    <_>
      9.37509867e-07 1.35376453e-01 1.27718213e-03</_>
    <_>
      8.42954762e-07 1.28871799e-01 1.27718213e-03</_>
    <_>
      9.58744522e-07 1.27029940e-01 1.23113568e-03</_>
    <_>
      9.63967182e-07 1.22856684e-01 1.20932423e-03</_>
    <_>
      1.00144405e-06 1.31959334e-01 1.24325324e-03</_>
    <_>
      1.06158791e-06 1.27824843e-01 1.20932423e-03</_>
    <_>
      1.24781184e-06 1.40872940e-01 1.23355922e-03</_>
    <_>
      1.30496016e-06 1.37836307e-01 1.21174776e-03</_>
    <_>
      1.35318294e-06 1.35979906e-01 1.19720679e-03</_>
    <_>
      1.44601972e-06 1.30141705e-01 1.16085436e-03</_>
    <_>
      1.48241350e-06 1.25532225e-01 1.13661936e-03</_>
    <_>
      1.52654286e-06 1.20537393e-01 1.10996095e-03</_>
    <_>
      1.58323337e-06 1.18862763e-01 1.09784352e-03</_>
    <_>
      1.63381651e-06 1.16473198e-01 1.08330254e-03</_>
    <_>
      1.66848463e-06 1.12789482e-01 1.06391450e-03</_>
    <_>
      1.73380499e-06 1.10979132e-01 1.05179707e-03</_>
    <_>
      1.75192554e-06 1.08621068e-01 1.03967963e-03</_>
    <_>
      1.78520986e-06 1.05414785e-01 1.02271512e-03</_>
    <_>
      1.83289694e-06 1.03822544e-01 1.01302110e-03</_>
    <_>
      1.87794717e-06 1.00209117e-01 9.93633177e-04</_>
    <_>
      1.91328672e-06 9.94602591e-02 9.88786225e-04</_>
    <_>
      1.95618486e-06 9.72791091e-02 9.76668671e-04</_>
    <_>
      1.95618486e-06 9.72791091e-02 9.76668671e-04</_>
    <_>
      1.06918810e-06 1.00114599e-01 1.06876157e-03</_>
    <_>
      1.11267286e-06 1.12518050e-01 1.12450193e-03</_>
    <_>
      1.08204949e-06 1.15702525e-01 1.14631339e-03</_>
    <_>
      1.48050128e-06 9.77856219e-02 1.00332720e-03</_>
    <_>
      9.27888550e-07 1.46243408e-01 1.33049907e-03</_>
    <_>
      9.64514925e-07 1.52016178e-01 1.34504004e-03</_>
    <_>
      9.88931561e-07 1.55864686e-01 1.35473395e-03</_>
    <_>
      1.00724594e-06 1.58751070e-01 1.36200443e-03</_>
    <_>
      1.04387220e-06 1.64523840e-01 1.37654541e-03</_>
    <_>
      1.07439621e-06 1.69334486e-01 1.38866296e-03</_>
    <_>
      1.10491760e-06 1.74145117e-01 1.40078040e-03</_>
    <_>
      1.13544161e-06 1.78955749e-01 1.41289784e-03</_>
    <_>
      1.18689240e-06 1.80526182e-01 1.40805088e-03</_>
    <_>
      1.22436938e-06 1.80540726e-01 1.40078040e-03</_>
    <_>
      1.27281737e-06 1.80904239e-01 1.39350991e-03</_>
    <_>
      1.40689735e-06 1.00296363e-01 1.02271512e-03</_>
    <_>
      1.51348752e-06 9.68768075e-02 9.96056711e-04</_>
    <_>
      1.44717342e-06 1.77278697e-01 1.35473395e-03</_>
    <_>
      1.16155718e-06 1.32700920e-01 1.21174776e-03</_>
    <_>
      1.63789753e-06 1.75138757e-01 1.32807554e-03</_>
    <_>
      1.28437512e-06 1.29065678e-01 1.17539533e-03</_>
    <_>
      1.31627553e-06 1.28954202e-01 1.17054838e-03</_>
    <_>
      1.39411816e-06 1.24635525e-01 1.14146643e-03</_>
    <_>
      1.46929744e-06 1.21024519e-01 1.11723144e-03</_>
    <_>
      1.53983819e-06 1.18150257e-01 1.09784352e-03</_>
    <_>
      1.57438751e-06 1.18198723e-01 1.09541998e-03</_>
    <_>
      1.64649623e-06 1.13022134e-01 1.06633804e-03</_>
    <_>
      1.01755791e-06 9.90531072e-02 1.07360852e-03</_>
    <_>
      1.05369463e-06 1.09251179e-01 1.11965497e-03</_>
    <_>
      1.89473235e-06 1.43289179e-01 1.18751277e-03</_>
    <_>
      2.15985074e-06 1.23372883e-01 1.09541998e-03</_>
    <_>
      2.04238154e-06 1.25614613e-01 1.10753742e-03</_>
    <_>
      1.98551402e-06 1.23103879e-01 1.09784352e-03</_>
    <_>
      1.97284658e-06 1.15537725e-01 1.06391450e-03</_>
    <_>
      1.92277230e-06 1.12605296e-01 1.05179707e-03</_>
    <_>
      1.86578609e-06 1.06575638e-01 1.02513866e-03</_>
    <_>
      1.85142460e-06 1.00512050e-01 9.96056711e-04</_>
    <_>
      1.77861784e-06 9.65593308e-02 9.79092205e-04</_>
    <_>
      1.00621116e-06 1.56994045e-01 1.35473395e-03</_>
    <_>
      1.02721788e-06 1.59461156e-01 1.35958102e-03</_>
    <_>
      1.01848127e-06 1.58908606e-01 1.35958102e-03</_>
    <_>
      1.02202921e-06 1.60270602e-01 1.36442797e-03</_>
    <_>
      1.16063143e-06 1.88497052e-01 1.44440331e-03</_>
    <_>
      1.03427033e-06 1.62190020e-01 1.36927492e-03</_>
    <_>
      1.10545329e-06 1.75989404e-01 1.40805088e-03</_>
    <_>
      1.08821973e-06 1.84718832e-01 1.44682685e-03</_>
    <_>
      1.02814852e-06 1.61230311e-01 1.36685150e-03</_>
    <_>
      1.09057294e-06 1.74491674e-01 1.40562735e-03</_>
    <_>
      1.01590990e-06 1.59310907e-01 1.36200443e-03</_>
    <_>
      1.10158771e-06 1.72746763e-01 1.39593345e-03</_>
    <_>
      1.12411419e-06 1.80758834e-01 1.42259186e-03</_>
    <_>
      1.07098867e-06 1.67948246e-01 1.38381589e-03</_>
    <_>
      1.08468384e-06 1.65827677e-01 1.37169845e-03</_>
    <_>
      1.19291235e-06 1.77739158e-01 1.39593345e-03</_>
    <_>
      1.22799008e-06 1.70849159e-01 1.36200443e-03</_>
    <_>
      1.30813737e-06 1.62083387e-01 1.31353457e-03</_>
    <_>
      1.39512872e-06 1.58443287e-01 1.28687616e-03</_>
    <_>
      1.71225292e-06 1.30432531e-01 1.14146643e-03</_>
    <_>
      1.84779901e-06 1.25873938e-01 1.11480791e-03</_>
    <_>
      1.93879646e-06 1.26070231e-01 1.11238449e-03</_>
    <_>
      1.93680899e-06 1.15309916e-01 1.06391450e-03</_>
    <_>
      2.07572884e-06 1.03223942e-01 1.00332720e-03</_>
    <_>
      1.83626310e-06 1.24131441e-01 1.10753742e-03</_>
    <_>
      1.76002970e-06 1.21739447e-01 1.10026693e-03</_>
    <_>
      1.85833153e-06 1.18950009e-01 1.08330254e-03</_>
    <_>
      1.89032642e-06 1.18145406e-01 1.07845548e-03</_>
    <_>
      1.96718770e-06 1.12367794e-01 1.04937353e-03</_>
    <_>
      1.98192743e-06 1.10385373e-01 1.03967963e-03</_>
    <_>
      2.00744421e-06 1.08982168e-01 1.03240914e-03</_>
    <_>
      2.01255534e-06 1.06464155e-01 1.02029159e-03</_>
    <_>
      2.04251000e-06 1.07111230e-01 1.02271512e-03</_>
    <_>
      1.99704255e-06 1.08417496e-01 1.02998561e-03</_>
    <_>
      1.95508960e-06 1.10744052e-01 1.04210305e-03</_>
    <_>
      1.31866750e-06 1.52437866e-01 1.27233518e-03</_>
    <_>
      1.33183198e-06 1.47685394e-01 1.25052372e-03</_>
    <_>
      1.40974498e-06 1.32002950e-01 1.17297180e-03</_>
    <_>
      1.44601972e-06 1.30141705e-01 1.16085436e-03</_>
    <_>
      1.41632950e-06 1.34358585e-01 1.18266582e-03</_>
    <_>
      1.46385662e-06 1.29996300e-01 1.15843082e-03</_>
    <_>
      1.40846043e-06 1.33612156e-01 1.18024228e-03</_>
    <_>
      1.36946630e-06 1.35885388e-01 1.19478325e-03</_>
    <_>
      1.09428333e-06 1.68151811e-01 1.37896894e-03</_>
    <_>
      1.13137730e-06 1.73851877e-01 1.39350991e-03</_>
    <_>
      1.11283032e-06 1.71001837e-01 1.38623943e-03</_>
    <_>
      1.10046574e-06 1.69101819e-01 1.38139247e-03</_>
    <_>
      1.11283032e-06 1.71001837e-01 1.38623943e-03</_>
    <_>
      1.09649113e-06 1.65922195e-01 1.36927492e-03</_>
    <_>
      1.10272197e-06 1.66864932e-01 1.37169845e-03</_>
    <_>
      1.09428333e-06 1.68151811e-01 1.37896894e-03</_>
    <_>
      1.11181009e-06 1.67376295e-01 1.37169845e-03</_>
    <_>
      1.13387114e-06 1.71578631e-01 1.38381589e-03</_>
    <_>
      1.13679391e-06 1.71137556e-01 1.38139247e-03</_>
    <_>
      1.14928707e-06 1.73018187e-01 1.38623943e-03</_>
    <_>
      1.14992440e-06 1.76701903e-01 1.40078040e-03</_>
    <_>
      1.14374200e-06 1.75751895e-01 1.39835686e-03</_>
    <_>
      1.14992440e-06 1.76701903e-01 1.40078040e-03</_>
    <_>
      1.14374200e-06 1.75751895e-01 1.39835686e-03</_>
    <_>
      1.10046574e-06 1.69101819e-01 1.38139247e-03</_>
    <_>
      1.08810104e-06 1.67201802e-01 1.37654541e-03</_>
    <_>
      1.02983051e-06 1.59056440e-01 1.35715748e-03</_>
    <_>
      1.08660572e-06 1.71258733e-01 1.39350991e-03</_>
    <_>
      1.12734710e-06 1.82183847e-01 1.42743881e-03</_>
    <_>
      1.14765112e-06 1.80880010e-01 1.41774490e-03</_>
    <_>
      1.16847139e-06 1.79551929e-01 1.40805088e-03</_>
    <_>
      9.42070869e-07 1.06990054e-01 1.13419595e-03</_>
    <_>
      9.51825484e-07 1.04283012e-01 1.11723144e-03</_>
    <_>
      9.54709321e-07 1.03967957e-01 1.11480791e-03</_>
    <_>
      9.47026933e-07 1.00029774e-01 1.09541998e-03</_>
    <_>
      9.54483994e-07 1.00817412e-01 1.09784352e-03</_>
    <_>
      9.72437306e-07 9.89561677e-02 1.08330254e-03</_>
    <_>
      9.81668336e-07 9.80255455e-02 1.07603206e-03</_>
    <_>
      1.09096322e-06 1.05518997e-01 1.09299645e-03</_>
    <_>
      3.34839820e-06 1.43475786e-01 1.19478325e-03</_>
    <_>
      1.13723979e-06 1.08584717e-01 1.10026693e-03</_>
    <_>
      3.22421852e-06 1.66140318e-01 1.28202909e-03</_>
    <_>
      8.07830986e-07 9.78316665e-02 1.12450193e-03</_>
    <_>
      8.35689150e-07 1.01205170e-01 1.13419595e-03</_>
    <_>
      2.10230974e-06 3.62070233e-01 1.87820906e-03</_>
    <_>
      1.09967800e-06 1.31649122e-01 1.21901825e-03</_>
    <_>
      8.05497223e-07 9.64308903e-02 1.11723144e-03</_>
    <_>
      8.05497223e-07 9.64308903e-02 1.11723144e-03</_>
    <_>
      9.03556668e-07 1.08170301e-01 1.15116034e-03</_>
    <_>
      8.85101770e-07 1.05349347e-01 1.14146643e-03</_>
    <_>
      5.70607199e-06 4.09832478e-01 2.17872253e-03</_>
    <_>
      9.27510484e-07 9.73663554e-02 1.08572596e-03</_>
    <_>
      9.36179333e-07 9.64648128e-02 1.07845548e-03</_>
    <_>
      9.77092782e-07 9.69519392e-02 1.07118499e-03</_></uncompressed_support_vectors>
  <decision_functions>
    <_>
      <sv_count>1</sv_count>
      <rho>9.1627207088517038e-01</rho>
      <alpha>
        1.</alpha></_></decision_functions></opencv_ml_svm>
</opencv_storage>
